<?xml version="1.0"?>
<opencv_storage>
<cascade>
  <stageType>BOOST</stageType>
  <featureType>HAAR</featureType>
  <height>48</height>
  <width>24</width>
  <stageParams>
    <boostType>GAB</boostType>
    <minHitRate>9.9900001287460327e-01</minHitRate>
    <maxFalseAlarm>3.0000001192092896e-01</maxFalseAlarm>
    <weightTrimRate>9.4999999999999996e-01</weightTrimRate>
    <maxDepth>1</maxDepth>
    <maxWeakCount>100</maxWeakCount></stageParams>
  <featureParams>
    <maxCatCount>0</maxCatCount>
    <featSize>1</featSize>
    <mode>BASIC</mode></featureParams>
  <stageNum>17</stageNum>
  <stages>
    <!-- stage 0 -->
    <_>
      <maxWeakCount>5</maxWeakCount>
      <stageThreshold>-9.9802148342132568e-01</stageThreshold>
      <weakClassifiers>
        <_>
          <internalNodes>
            0 -1 225 2.5152411311864853e-02</internalNodes>
          <leafValues>
            -7.5632184743881226e-01 7.8181821107864380e-01</leafValues></_>
        <_>
          <internalNodes>
            0 -1 0 -1.0257375426590443e-02</internalNodes>
          <leafValues>
            4.5922961831092834e-01 -8.6858409643173218e-01</leafValues></_>
        <_>
          <internalNodes>
            0 -1 12 -3.3435910940170288e-02</internalNodes>
          <leafValues>
            5.9733337163925171e-01 -6.0920435190200806e-01</leafValues></_>
        <_>
          <internalNodes>
            0 -1 92 -4.6598203480243683e-02</internalNodes>
          <leafValues>
            5.1034069061279297e-01 -6.3800060749053955e-01</leafValues></_>
        <_>
          <internalNodes>
            0 -1 10 -2.5727400556206703e-02</internalNodes>
          <leafValues>
            5.4627573490142822e-01 -5.5739706754684448e-01</leafValues></_></weakClassifiers></_>
    <!-- stage 1 -->
    <_>
      <maxWeakCount>9</maxWeakCount>
      <stageThreshold>-1.1469106674194336e+00</stageThreshold>
      <weakClassifiers>
        <_>
          <internalNodes>
            0 -1 219 1.9995624199509621e-02</internalNodes>
          <leafValues>
            -7.3934835195541382e-01 4.7263681888580322e-01</leafValues></_>
        <_>
          <internalNodes>
            0 -1 140 -3.1523030251264572e-02</internalNodes>
          <leafValues>
            4.0204331278800964e-01 -6.5741717815399170e-01</leafValues></_>
        <_>
          <internalNodes>
            0 -1 105 1.4142510481178761e-02</internalNodes>
          <leafValues>
            -4.2056876420974731e-01 6.6416060924530029e-01</leafValues></_>
        <_>
          <internalNodes>
            0 -1 67 -3.9253792166709900e-01</internalNodes>
          <leafValues>
            -9.1889500617980957e-01 2.7064242959022522e-01</leafValues></_>
        <_>
          <internalNodes>
            0 -1 181 -1.1594942770898342e-02</internalNodes>
          <leafValues>
            7.5296193361282349e-01 -3.1275182962417603e-01</leafValues></_>
        <_>
          <internalNodes>
            0 -1 159 -5.2953707054257393e-03</internalNodes>
          <leafValues>
            7.2193926572799683e-01 -2.7302247285842896e-01</leafValues></_>
        <_>
          <internalNodes>
            0 -1 8 -5.1380790770053864e-02</internalNodes>
          <leafValues>
            7.7534079551696777e-01 -2.8480520844459534e-01</leafValues></_>
        <_>
          <internalNodes>
            0 -1 119 3.3819690346717834e-02</internalNodes>
          <leafValues>
            -2.9624205827713013e-01 6.4050084352493286e-01</leafValues></_>
        <_>
          <internalNodes>
            0 -1 216 -1.5582659980282187e-03</internalNodes>
          <leafValues>
            6.2900245189666748e-01 -3.6510193347930908e-01</leafValues></_></weakClassifiers></_>
    <!-- stage 2 -->
    <_>
      <maxWeakCount>9</maxWeakCount>
      <stageThreshold>-1.3205318450927734e+00</stageThreshold>
      <weakClassifiers>
        <_>
          <internalNodes>
            0 -1 200 6.5522775053977966e-02</internalNodes>
          <leafValues>
            -6.6831684112548828e-01 3.5714286565780640e-01</leafValues></_>
        <_>
          <internalNodes>
            0 -1 29 -7.2369906120002270e-03</internalNodes>
          <leafValues>
            5.4098087549209595e-01 -4.2619487643241882e-01</leafValues></_>
        <_>
          <internalNodes>
            0 -1 114 -1.5829403698444366e-01</internalNodes>
          <leafValues>
            -9.7212338447570801e-01 2.3120713233947754e-01</leafValues></_>
        <_>
          <internalNodes>
            0 -1 166 -1.2290542013943195e-02</internalNodes>
          <leafValues>
            6.5845972299575806e-01 -3.4709462523460388e-01</leafValues></_>
        <_>
          <internalNodes>
            0 -1 144 3.6664438084699214e-04</internalNodes>
          <leafValues>
            -3.6712193489074707e-01 4.9970522522926331e-01</leafValues></_>
        <_>
          <internalNodes>
            0 -1 109 2.5452651083469391e-02</internalNodes>
          <leafValues>
            -4.2671871185302734e-01 4.3107253313064575e-01</leafValues></_>
        <_>
          <internalNodes>
            0 -1 13 -3.7561971694231033e-02</internalNodes>
          <leafValues>
            4.2772862315177917e-01 -3.8972750306129456e-01</leafValues></_>
        <_>
          <internalNodes>
            0 -1 82 1.0936346370726824e-03</internalNodes>
          <leafValues>
            -3.5481223464012146e-01 5.5406302213668823e-01</leafValues></_>
        <_>
          <internalNodes>
            0 -1 128 1.4142252504825592e-02</internalNodes>
          <leafValues>
            -3.4745472669601440e-01 6.4752483367919922e-01</leafValues></_></weakClassifiers></_>
    <!-- stage 3 -->
    <_>
      <maxWeakCount>11</maxWeakCount>
      <stageThreshold>-7.9109263420104980e-01</stageThreshold>
      <weakClassifiers>
        <_>
          <internalNodes>
            0 -1 103 1.7235161736607552e-02</internalNodes>
          <leafValues>
            -5.7017540931701660e-01 4.1666665673255920e-01</leafValues></_>
        <_>
          <internalNodes>
            0 -1 72 -2.8872406482696533e-01</internalNodes>
          <leafValues>
            -8.3081275224685669e-01 2.3498500883579254e-01</leafValues></_>
        <_>
          <internalNodes>
            0 -1 97 4.8507056199014187e-03</internalNodes>
          <leafValues>
            -3.3976882696151733e-01 6.1980086565017700e-01</leafValues></_>
        <_>
          <internalNodes>
            0 -1 176 4.6212244778871536e-03</internalNodes>
          <leafValues>
            -4.8130035400390625e-01 3.9322122931480408e-01</leafValues></_>
        <_>
          <internalNodes>
            0 -1 93 -6.2351617962121964e-03</internalNodes>
          <leafValues>
            6.5892177820205688e-01 -2.7328240871429443e-01</leafValues></_>
        <_>
          <internalNodes>
            0 -1 175 -4.2401149868965149e-02</internalNodes>
          <leafValues>
            2.2720597684383392e-01 -8.3027178049087524e-01</leafValues></_>
        <_>
          <internalNodes>
            0 -1 27 -1.9742626696825027e-02</internalNodes>
          <leafValues>
            4.6192520856857300e-01 -3.7040114402770996e-01</leafValues></_>
        <_>
          <internalNodes>
            0 -1 221 6.4520291052758694e-03</internalNodes>
          <leafValues>
            -3.7130990624427795e-01 4.2169082164764404e-01</leafValues></_>
        <_>
          <internalNodes>
            0 -1 65 -3.1889840960502625e-02</internalNodes>
          <leafValues>
            -9.3813925981521606e-01 1.8932765722274780e-01</leafValues></_>
        <_>
          <internalNodes>
            0 -1 18 -4.8086736351251602e-02</internalNodes>
          <leafValues>
            4.8779892921447754e-01 -3.4495788812637329e-01</leafValues></_>
        <_>
          <internalNodes>
            0 -1 215 -2.8764023445546627e-03</internalNodes>
          <leafValues>
            6.0153198242187500e-01 -3.0784484744071960e-01</leafValues></_></weakClassifiers></_>
    <!-- stage 4 -->
    <_>
      <maxWeakCount>13</maxWeakCount>
      <stageThreshold>-8.4879225492477417e-01</stageThreshold>
      <weakClassifiers>
        <_>
          <internalNodes>
            0 -1 62 -1.0701061226427555e-02</internalNodes>
          <leafValues>
            -4.9498999118804932e-01 4.6534654498100281e-01</leafValues></_>
        <_>
          <internalNodes>
            0 -1 91 6.1755883507430553e-03</internalNodes>
          <leafValues>
            -3.3748030662536621e-01 4.2769867181777954e-01</leafValues></_>
        <_>
          <internalNodes>
            0 -1 26 -3.9540044963359833e-02</internalNodes>
          <leafValues>
            3.0265155434608459e-01 -4.4765529036521912e-01</leafValues></_>
        <_>
          <internalNodes>
            0 -1 161 -1.6782281454652548e-03</internalNodes>
          <leafValues>
            3.8816434144973755e-01 -2.9462504386901855e-01</leafValues></_>
        <_>
          <internalNodes>
            0 -1 139 -7.6547218486666679e-03</internalNodes>
          <leafValues>
            5.9061807394027710e-01 -2.1548107266426086e-01</leafValues></_>
        <_>
          <internalNodes>
            0 -1 45 -3.7588946521282196e-02</internalNodes>
          <leafValues>
            4.2153403162956238e-01 -3.0784389376640320e-01</leafValues></_>
        <_>
          <internalNodes>
            0 -1 151 -6.5763702150434256e-04</internalNodes>
          <leafValues>
            4.0245962142944336e-01 -3.1248497962951660e-01</leafValues></_>
        <_>
          <internalNodes>
            0 -1 149 9.0059952344745398e-04</internalNodes>
          <leafValues>
            -1.6742171347141266e-01 7.0317912101745605e-01</leafValues></_>
        <_>
          <internalNodes>
            0 -1 162 -7.6836477965116501e-03</internalNodes>
          <leafValues>
            -4.7429433465003967e-01 3.1462246179580688e-01</leafValues></_>
        <_>
          <internalNodes>
            0 -1 68 -5.8000154793262482e-02</internalNodes>
          <leafValues>
            -6.7424511909484863e-01 1.6270056366920471e-01</leafValues></_>
        <_>
          <internalNodes>
            0 -1 83 4.3093590065836906e-03</internalNodes>
          <leafValues>
            -2.1767760813236237e-01 5.4801017045974731e-01</leafValues></_>
        <_>
          <internalNodes>
            0 -1 24 -6.7548938095569611e-03</internalNodes>
          <leafValues>
            3.7307530641555786e-01 -3.1408494710922241e-01</leafValues></_>
        <_>
          <internalNodes>
            0 -1 195 -5.2024321630597115e-03</internalNodes>
          <leafValues>
            5.1533466577529907e-01 -2.2905915975570679e-01</leafValues></_></weakClassifiers></_>
    <!-- stage 5 -->
    <_>
      <maxWeakCount>14</maxWeakCount>
      <stageThreshold>-1.1662158966064453e+00</stageThreshold>
      <weakClassifiers>
        <_>
          <internalNodes>
            0 -1 230 2.2700212895870209e-02</internalNodes>
          <leafValues>
            -5.8333331346511841e-01 1.9791667163372040e-01</leafValues></_>
        <_>
          <internalNodes>
            0 -1 49 2.9901186935603619e-03</internalNodes>
          <leafValues>
            -4.2031294107437134e-01 2.9026848077774048e-01</leafValues></_>
        <_>
          <internalNodes>
            0 -1 57 -2.8549570590257645e-02</internalNodes>
          <leafValues>
            1.9160464406013489e-01 -5.6904494762420654e-01</leafValues></_>
        <_>
          <internalNodes>
            0 -1 64 -3.2074288465082645e-03</internalNodes>
          <leafValues>
            6.2217408418655396e-01 -1.8214644491672516e-01</leafValues></_>
        <_>
          <internalNodes>
            0 -1 201 4.8709998372942209e-04</internalNodes>
          <leafValues>
            -2.5589871406555176e-01 4.6284776926040649e-01</leafValues></_>
        <_>
          <internalNodes>
            0 -1 38 3.2851280411705375e-04</internalNodes>
          <leafValues>
            2.0424103736877441e-01 -6.6583764553070068e-01</leafValues></_>
        <_>
          <internalNodes>
            0 -1 193 -9.2595383524894714e-02</internalNodes>
          <leafValues>
            1.4976723492145538e-01 -6.3123226165771484e-01</leafValues></_>
        <_>
          <internalNodes>
            0 -1 138 -7.0542417466640472e-02</internalNodes>
          <leafValues>
            -5.9486651420593262e-01 1.8822698295116425e-01</leafValues></_>
        <_>
          <internalNodes>
            0 -1 100 -4.8677209997549653e-04</internalNodes>
          <leafValues>
            4.0860864520072937e-01 -2.8639185428619385e-01</leafValues></_>
        <_>
          <internalNodes>
            0 -1 133 -4.4345227070152760e-04</internalNodes>
          <leafValues>
            5.4841041564941406e-01 -2.1033455431461334e-01</leafValues></_>
        <_>
          <internalNodes>
            0 -1 227 -2.9705296037718654e-04</internalNodes>
          <leafValues>
            3.9207375049591064e-01 -3.0347263813018799e-01</leafValues></_>
        <_>
          <internalNodes>
            0 -1 19 1.4737395395059139e-04</internalNodes>
          <leafValues>
            1.5440241992473602e-01 -7.3524326086044312e-01</leafValues></_>
        <_>
          <internalNodes>
            0 -1 95 -1.3246727176010609e-03</internalNodes>
          <leafValues>
            4.1310226917266846e-01 -2.9579937458038330e-01</leafValues></_>
        <_>
          <internalNodes>
            0 -1 69 -1.1145563330501318e-03</internalNodes>
          <leafValues>
            5.7328563928604126e-01 -2.2734980285167694e-01</leafValues></_></weakClassifiers></_>
    <!-- stage 6 -->
    <_>
      <maxWeakCount>15</maxWeakCount>
      <stageThreshold>-1.1038590669631958e+00</stageThreshold>
      <weakClassifiers>
        <_>
          <internalNodes>
            0 -1 73 8.6945928633213043e-03</internalNodes>
          <leafValues>
            -6.3333332538604736e-01 1.1666666716337204e-01</leafValues></_>
        <_>
          <internalNodes>
            0 -1 43 -1.6323771327733994e-02</internalNodes>
          <leafValues>
            3.3919787406921387e-01 -3.9989453554153442e-01</leafValues></_>
        <_>
          <internalNodes>
            0 -1 208 -1.0060723870992661e-03</internalNodes>
          <leafValues>
            3.7089136242866516e-01 -3.1083720922470093e-01</leafValues></_>
        <_>
          <internalNodes>
            0 -1 35 7.4195712804794312e-02</internalNodes>
          <leafValues>
            1.5866482257843018e-01 -7.3647326231002808e-01</leafValues></_>
        <_>
          <internalNodes>
            0 -1 197 3.7786670145578682e-04</internalNodes>
          <leafValues>
            1.8028366565704346e-01 -7.0881766080856323e-01</leafValues></_>
        <_>
          <internalNodes>
            0 -1 204 2.1833267062902451e-02</internalNodes>
          <leafValues>
            -3.2637074589729309e-01 3.6188960075378418e-01</leafValues></_>
        <_>
          <internalNodes>
            0 -1 137 -1.2927966890856624e-03</internalNodes>
          <leafValues>
            5.7540178298950195e-01 -2.1843196451663971e-01</leafValues></_>
        <_>
          <internalNodes>
            0 -1 74 2.1687068510800600e-03</internalNodes>
          <leafValues>
            -5.0304943323135376e-01 2.6152303814888000e-01</leafValues></_>
        <_>
          <internalNodes>
            0 -1 170 -2.3485163226723671e-02</internalNodes>
          <leafValues>
            6.5969073772430420e-01 -2.2120985388755798e-01</leafValues></_>
        <_>
          <internalNodes>
            0 -1 241 3.2452945015393198e-04</internalNodes>
          <leafValues>
            2.6017215847969055e-01 -5.3043550252914429e-01</leafValues></_>
        <_>
          <internalNodes>
            0 -1 213 -1.5832514036446810e-03</internalNodes>
          <leafValues>
            4.0963312983512878e-01 -2.9400619864463806e-01</leafValues></_>
        <_>
          <internalNodes>
            0 -1 240 1.6319358837790787e-04</internalNodes>
          <leafValues>
            1.6304968297481537e-01 -6.4126545190811157e-01</leafValues></_>
        <_>
          <internalNodes>
            0 -1 84 -1.4323306968435645e-03</internalNodes>
          <leafValues>
            4.0416407585144043e-01 -2.8036674857139587e-01</leafValues></_>
        <_>
          <internalNodes>
            0 -1 99 -4.7234310768544674e-03</internalNodes>
          <leafValues>
            4.6761718392372131e-01 -2.4306763708591461e-01</leafValues></_>
        <_>
          <internalNodes>
            0 -1 81 -1.7105977237224579e-01</internalNodes>
          <leafValues>
            -5.4043352603912354e-01 2.3148971796035767e-01</leafValues></_></weakClassifiers></_>
    <!-- stage 7 -->
    <_>
      <maxWeakCount>16</maxWeakCount>
      <stageThreshold>-1.0705486536026001e+00</stageThreshold>
      <weakClassifiers>
        <_>
          <internalNodes>
            0 -1 106 3.1925439834594727e-02</internalNodes>
          <leafValues>
            -5.2991455793380737e-01 3.6363637447357178e-01</leafValues></_>
        <_>
          <internalNodes>
            0 -1 209 1.4588722959160805e-02</internalNodes>
          <leafValues>
            -3.7029850482940674e-01 2.8112924098968506e-01</leafValues></_>
        <_>
          <internalNodes>
            0 -1 28 -3.8252857048064470e-03</internalNodes>
          <leafValues>
            4.6681752800941467e-01 -2.1965047717094421e-01</leafValues></_>
        <_>
          <internalNodes>
            0 -1 56 -2.4578109383583069e-02</internalNodes>
          <leafValues>
            4.4662132859230042e-01 -2.0540377497673035e-01</leafValues></_>
        <_>
          <internalNodes>
            0 -1 167 8.4778564050793648e-03</internalNodes>
          <leafValues>
            -3.2907077670097351e-01 3.3342683315277100e-01</leafValues></_>
        <_>
          <internalNodes>
            0 -1 184 -5.6422306224703789e-03</internalNodes>
          <leafValues>
            3.0865734815597534e-01 -3.9908370375633240e-01</leafValues></_>
        <_>
          <internalNodes>
            0 -1 4 8.5005600703880191e-04</internalNodes>
          <leafValues>
            1.2335940450429916e-01 -7.2379535436630249e-01</leafValues></_>
        <_>
          <internalNodes>
            0 -1 203 -2.8226769063621759e-03</internalNodes>
          <leafValues>
            4.6613791584968567e-01 -2.3978511989116669e-01</leafValues></_>
        <_>
          <internalNodes>
            0 -1 244 -6.1176968738436699e-03</internalNodes>
          <leafValues>
            -5.4233378171920776e-01 2.2292307019233704e-01</leafValues></_>
        <_>
          <internalNodes>
            0 -1 22 -2.0653674378991127e-02</internalNodes>
          <leafValues>
            -7.5035387277603149e-01 1.2401049584150314e-01</leafValues></_>
        <_>
          <internalNodes>
            0 -1 179 -3.6880210973322392e-03</internalNodes>
          <leafValues>
            6.0237205028533936e-01 -1.6792000830173492e-01</leafValues></_>
        <_>
          <internalNodes>
            0 -1 37 1.4698801096528769e-03</internalNodes>
          <leafValues>
            1.6781915724277496e-01 -6.4901685714721680e-01</leafValues></_>
        <_>
          <internalNodes>
            0 -1 239 4.1490345029160380e-04</internalNodes>
          <leafValues>
            1.4582848548889160e-01 -6.6364508867263794e-01</leafValues></_>
        <_>
          <internalNodes>
            0 -1 245 -3.3287791302427649e-04</internalNodes>
          <leafValues>
            2.9138910770416260e-01 -3.5526454448699951e-01</leafValues></_>
        <_>
          <internalNodes>
            0 -1 220 -6.9760456681251526e-02</internalNodes>
          <leafValues>
            3.7603580951690674e-01 -3.1049087643623352e-01</leafValues></_>
        <_>
          <internalNodes>
            0 -1 234 -3.5694276448339224e-04</internalNodes>
          <leafValues>
            -7.5482004880905151e-01 1.3556353747844696e-01</leafValues></_></weakClassifiers></_>
    <!-- stage 8 -->
    <_>
      <maxWeakCount>15</maxWeakCount>
      <stageThreshold>-8.8679474592208862e-01</stageThreshold>
      <weakClassifiers>
        <_>
          <internalNodes>
            0 -1 173 -8.5126180201768875e-03</internalNodes>
          <leafValues>
            1.4285714924335480e-01 -5.6435644626617432e-01</leafValues></_>
        <_>
          <internalNodes>
            0 -1 111 -6.0000173747539520e-02</internalNodes>
          <leafValues>
            1.7338626086711884e-01 -5.0885540246963501e-01</leafValues></_>
        <_>
          <internalNodes>
            0 -1 15 -1.6170524060726166e-02</internalNodes>
          <leafValues>
            2.6927721500396729e-01 -3.6712658405303955e-01</leafValues></_>
        <_>
          <internalNodes>
            0 -1 94 -3.4823976457118988e-03</internalNodes>
          <leafValues>
            6.7081916332244873e-01 -1.5660756826400757e-01</leafValues></_>
        <_>
          <internalNodes>
            0 -1 120 -7.4157025665044785e-04</internalNodes>
          <leafValues>
            6.7686694860458374e-01 -1.5258729457855225e-01</leafValues></_>
        <_>
          <internalNodes>
            0 -1 113 2.3117940872907639e-04</internalNodes>
          <leafValues>
            -2.4850554764270782e-01 3.9993789792060852e-01</leafValues></_>
        <_>
          <internalNodes>
            0 -1 117 1.2700454099103808e-03</internalNodes>
          <leafValues>
            -2.4816706776618958e-01 4.1421967744827271e-01</leafValues></_>
        <_>
          <internalNodes>
            0 -1 205 -1.7366575775668025e-04</internalNodes>
          <leafValues>
            3.2794252038002014e-01 -3.0603149533271790e-01</leafValues></_>
        <_>
          <internalNodes>
            0 -1 214 -3.5493676550686359e-03</internalNodes>
          <leafValues>
            5.0352865457534790e-01 -2.0575793087482452e-01</leafValues></_>
        <_>
          <internalNodes>
            0 -1 31 -1.1014894396066666e-01</internalNodes>
          <leafValues>
            -7.4357491731643677e-01 1.6172753274440765e-01</leafValues></_>
        <_>
          <internalNodes>
            0 -1 86 -1.5356676653027534e-02</internalNodes>
          <leafValues>
            5.9020334482192993e-01 -1.9160723686218262e-01</leafValues></_>
        <_>
          <internalNodes>
            0 -1 108 2.0852118730545044e-02</internalNodes>
          <leafValues>
            -2.1327999234199524e-01 5.2240008115768433e-01</leafValues></_>
        <_>
          <internalNodes>
            0 -1 164 -1.3955042231827974e-03</internalNodes>
          <leafValues>
            5.5191904306411743e-01 -1.8899174034595490e-01</leafValues></_>
        <_>
          <internalNodes>
            0 -1 25 1.0208027670159936e-03</internalNodes>
          <leafValues>
            1.5240894258022308e-01 -8.5498583316802979e-01</leafValues></_>
        <_>
          <internalNodes>
            0 -1 3 -1.1505531147122383e-03</internalNodes>
          <leafValues>
            -7.4314820766448975e-01 1.2508405745029449e-01</leafValues></_></weakClassifiers></_>
    <!-- stage 9 -->
    <_>
      <maxWeakCount>16</maxWeakCount>
      <stageThreshold>-9.1645330190658569e-01</stageThreshold>
      <weakClassifiers>
        <_>
          <internalNodes>
            0 -1 155 -5.5446540936827660e-03</internalNodes>
          <leafValues>
            1.6770187020301819e-01 -5.1708430051803589e-01</leafValues></_>
        <_>
          <internalNodes>
            0 -1 178 2.2024624049663544e-03</internalNodes>
          <leafValues>
            -2.3031480610370636e-01 4.3218395113945007e-01</leafValues></_>
        <_>
          <internalNodes>
            0 -1 59 1.1949934065341949e-02</internalNodes>
          <leafValues>
            -1.9104531407356262e-01 4.8557966947555542e-01</leafValues></_>
        <_>
          <internalNodes>
            0 -1 242 -3.0761130619794130e-04</internalNodes>
          <leafValues>
            -7.7980965375900269e-01 1.0684534162282944e-01</leafValues></_>
        <_>
          <internalNodes>
            0 -1 40 -7.5140520930290222e-03</internalNodes>
          <leafValues>
            4.4734272360801697e-01 -2.1460114419460297e-01</leafValues></_>
        <_>
          <internalNodes>
            0 -1 198 1.1670272797346115e-03</internalNodes>
          <leafValues>
            1.4971442520618439e-01 -7.1302604675292969e-01</leafValues></_>
        <_>
          <internalNodes>
            0 -1 60 2.3431377485394478e-03</internalNodes>
          <leafValues>
            -1.8506647646427155e-01 5.6175893545150757e-01</leafValues></_>
        <_>
          <internalNodes>
            0 -1 131 -2.6802462525665760e-04</internalNodes>
          <leafValues>
            4.5970511436462402e-01 -1.9818212091922760e-01</leafValues></_>
        <_>
          <internalNodes>
            0 -1 123 -3.0878369580022991e-04</internalNodes>
          <leafValues>
            5.7952207326889038e-01 -1.6478931903839111e-01</leafValues></_>
        <_>
          <internalNodes>
            0 -1 89 2.4694100022315979e-02</internalNodes>
          <leafValues>
            -2.8939074277877808e-01 3.7331941723823547e-01</leafValues></_>
        <_>
          <internalNodes>
            0 -1 235 -1.0704212763812393e-04</internalNodes>
          <leafValues>
            -4.8314872384071350e-01 1.9982033967971802e-01</leafValues></_>
        <_>
          <internalNodes>
            0 -1 160 -1.0858194902539253e-02</internalNodes>
          <leafValues>
            7.1260857582092285e-01 -1.5069724619388580e-01</leafValues></_>
        <_>
          <internalNodes>
            0 -1 6 2.1802828996442258e-04</internalNodes>
          <leafValues>
            1.5532994270324707e-01 -7.0692795515060425e-01</leafValues></_>
        <_>
          <internalNodes>
            0 -1 189 1.0426843538880348e-02</internalNodes>
          <leafValues>
            -2.3917354643344879e-01 4.6224009990692139e-01</leafValues></_>
        <_>
          <internalNodes>
            0 -1 196 -1.1801647022366524e-02</internalNodes>
          <leafValues>
            6.8191546201705933e-01 -1.7733831703662872e-01</leafValues></_>
        <_>
          <internalNodes>
            0 -1 180 4.3177657062187791e-04</internalNodes>
          <leafValues>
            -2.2390279173851013e-01 4.8090773820877075e-01</leafValues></_></weakClassifiers></_>
    <!-- stage 10 -->
    <_>
      <maxWeakCount>19</maxWeakCount>
      <stageThreshold>-9.9064987897872925e-01</stageThreshold>
      <weakClassifiers>
        <_>
          <internalNodes>
            0 -1 146 -1.1809541285037994e-01</internalNodes>
          <leafValues>
            5.2380955219268799e-01 -4.3389198184013367e-01</leafValues></_>
        <_>
          <internalNodes>
            0 -1 36 3.3042224822565913e-04</internalNodes>
          <leafValues>
            1.0390434414148331e-01 -7.7267169952392578e-01</leafValues></_>
        <_>
          <internalNodes>
            0 -1 70 3.2557658851146698e-03</internalNodes>
          <leafValues>
            1.8339127302169800e-01 -4.7955146431922913e-01</leafValues></_>
        <_>
          <internalNodes>
            0 -1 34 6.5464421641081572e-04</internalNodes>
          <leafValues>
            1.6416138410568237e-01 -4.8959639668464661e-01</leafValues></_>
        <_>
          <internalNodes>
            0 -1 194 -6.8321375874802470e-04</internalNodes>
          <leafValues>
            5.2876168489456177e-01 -1.4680039882659912e-01</leafValues></_>
        <_>
          <internalNodes>
            0 -1 102 1.8644496798515320e-02</internalNodes>
          <leafValues>
            -1.7312142252922058e-01 5.7595527172088623e-01</leafValues></_>
        <_>
          <internalNodes>
            0 -1 136 1.2970164418220520e-01</internalNodes>
          <leafValues>
            -2.5082033872604370e-01 3.5660475492477417e-01</leafValues></_>
        <_>
          <internalNodes>
            0 -1 101 -3.8957060314714909e-03</internalNodes>
          <leafValues>
            4.2949184775352478e-01 -1.9512261450290680e-01</leafValues></_>
        <_>
          <internalNodes>
            0 -1 63 1.1279785539954901e-03</internalNodes>
          <leafValues>
            2.2684757411479950e-01 -4.1306337714195251e-01</leafValues></_>
        <_>
          <internalNodes>
            0 -1 168 -7.6371442992240191e-04</internalNodes>
          <leafValues>
            5.0079822540283203e-01 -2.0196999609470367e-01</leafValues></_>
        <_>
          <internalNodes>
            0 -1 236 -2.1735129412263632e-03</internalNodes>
          <leafValues>
            -8.7007117271423340e-01 1.2440045177936554e-01</leafValues></_>
        <_>
          <internalNodes>
            0 -1 112 -7.9378590453416109e-04</internalNodes>
          <leafValues>
            4.6493944525718689e-01 -2.2943513095378876e-01</leafValues></_>
        <_>
          <internalNodes>
            0 -1 98 1.9588803406804800e-03</internalNodes>
          <leafValues>
            -2.0202092826366425e-01 5.2332901954650879e-01</leafValues></_>
        <_>
          <internalNodes>
            0 -1 20 6.6229020012542605e-04</internalNodes>
          <leafValues>
            1.7990338802337646e-01 -5.9930866956710815e-01</leafValues></_>
        <_>
          <internalNodes>
            0 -1 147 9.6421956550329924e-04</internalNodes>
          <leafValues>
            -4.3360275030136108e-01 2.5176060199737549e-01</leafValues></_>
        <_>
          <internalNodes>
            0 -1 222 7.4747821781784296e-04</internalNodes>
          <leafValues>
            -2.7229934930801392e-01 3.9793595671653748e-01</leafValues></_>
        <_>
          <internalNodes>
            0 -1 217 -5.8631785213947296e-04</internalNodes>
          <leafValues>
            5.6942349672317505e-01 -2.1408407390117645e-01</leafValues></_>
        <_>
          <internalNodes>
            0 -1 1 4.3721764814108610e-04</internalNodes>
          <leafValues>
            1.9297903776168823e-01 -5.6340706348419189e-01</leafValues></_>
        <_>
          <internalNodes>
            0 -1 21 2.9117062222212553e-03</internalNodes>
          <leafValues>
            1.1354335397481918e-01 -8.1122922897338867e-01</leafValues></_></weakClassifiers></_>
    <!-- stage 11 -->
    <_>
      <maxWeakCount>17</maxWeakCount>
      <stageThreshold>-8.3713978528976440e-01</stageThreshold>
      <weakClassifiers>
        <_>
          <internalNodes>
            0 -1 165 -6.5234482288360596e-02</internalNodes>
          <leafValues>
            8.7500000000000000e-01 -4.0140846371650696e-01</leafValues></_>
        <_>
          <internalNodes>
            0 -1 54 7.7012326801195741e-04</internalNodes>
          <leafValues>
            7.5067564845085144e-02 -8.9744347333908081e-01</leafValues></_>
        <_>
          <internalNodes>
            0 -1 47 -3.1824423931539059e-03</internalNodes>
          <leafValues>
            3.3199208974838257e-01 -2.5704294443130493e-01</leafValues></_>
        <_>
          <internalNodes>
            0 -1 243 1.9484836957417428e-04</internalNodes>
          <leafValues>
            1.3378679752349854e-01 -4.9571892619132996e-01</leafValues></_>
        <_>
          <internalNodes>
            0 -1 154 1.6667053569108248e-04</internalNodes>
          <leafValues>
            -3.2270351052284241e-01 2.6439127326011658e-01</leafValues></_>
        <_>
          <internalNodes>
            0 -1 185 -1.1651064269244671e-03</internalNodes>
          <leafValues>
            -8.7720233201980591e-01 1.1945128440856934e-01</leafValues></_>
        <_>
          <internalNodes>
            0 -1 132 -9.2587992548942566e-03</internalNodes>
          <leafValues>
            9.5868863165378571e-02 -7.5353997945785522e-01</leafValues></_>
        <_>
          <internalNodes>
            0 -1 224 4.5015418436378241e-04</internalNodes>
          <leafValues>
            1.0424129664897919e-01 -6.9707876443862915e-01</leafValues></_>
        <_>
          <internalNodes>
            0 -1 150 1.4863035175949335e-04</internalNodes>
          <leafValues>
            -3.2335448265075684e-01 2.3003828525543213e-01</leafValues></_>
        <_>
          <internalNodes>
            0 -1 66 9.6087146084755659e-04</internalNodes>
          <leafValues>
            -2.1319329738616943e-01 3.8646295666694641e-01</leafValues></_>
        <_>
          <internalNodes>
            0 -1 125 -6.3262518960982561e-04</internalNodes>
          <leafValues>
            2.9870864748954773e-01 -2.9124528169631958e-01</leafValues></_>
        <_>
          <internalNodes>
            0 -1 110 -3.4800982102751732e-03</internalNodes>
          <leafValues>
            5.7224553823471069e-01 -1.7368805408477783e-01</leafValues></_>
        <_>
          <internalNodes>
            0 -1 148 -1.2848633341491222e-03</internalNodes>
          <leafValues>
            -5.7485389709472656e-01 1.7731289565563202e-01</leafValues></_>
        <_>
          <internalNodes>
            0 -1 129 1.4336786698549986e-03</internalNodes>
          <leafValues>
            1.0868807137012482e-01 -7.2245770692825317e-01</leafValues></_>
        <_>
          <internalNodes>
            0 -1 145 4.4956084457226098e-04</internalNodes>
          <leafValues>
            -1.9373615086078644e-01 5.3975623846054077e-01</leafValues></_>
        <_>
          <internalNodes>
            0 -1 87 8.4078181535005569e-03</internalNodes>
          <leafValues>
            -9.2057369649410248e-02 8.0476051568984985e-01</leafValues></_>
        <_>
          <internalNodes>
            0 -1 88 -3.2987603917717934e-03</internalNodes>
          <leafValues>
            3.9621382951736450e-01 -2.5738498568534851e-01</leafValues></_></weakClassifiers></_>
    <!-- stage 12 -->
    <_>
      <maxWeakCount>21</maxWeakCount>
      <stageThreshold>-9.7891372442245483e-01</stageThreshold>
      <weakClassifiers>
        <_>
          <internalNodes>
            0 -1 174 -7.8414827585220337e-03</internalNodes>
          <leafValues>
            7.1428574621677399e-02 -5.2970296144485474e-01</leafValues></_>
        <_>
          <internalNodes>
            0 -1 182 -2.8938432224094868e-03</internalNodes>
          <leafValues>
            -4.9699708819389343e-01 1.4619639515876770e-01</leafValues></_>
        <_>
          <internalNodes>
            0 -1 58 -9.7876379732042551e-04</internalNodes>
          <leafValues>
            3.2251515984535217e-01 -2.5764527916908264e-01</leafValues></_>
        <_>
          <internalNodes>
            0 -1 238 -2.0489067537710071e-04</internalNodes>
          <leafValues>
            -5.7884013652801514e-01 1.7786101996898651e-01</leafValues></_>
        <_>
          <internalNodes>
            0 -1 126 1.3389257946982980e-03</internalNodes>
          <leafValues>
            -1.3659961521625519e-01 6.3341915607452393e-01</leafValues></_>
        <_>
          <internalNodes>
            0 -1 142 -1.9675579387694597e-03</internalNodes>
          <leafValues>
            2.7413755655288696e-01 -2.8699865937232971e-01</leafValues></_>
        <_>
          <internalNodes>
            0 -1 171 -8.8277633767575026e-04</internalNodes>
          <leafValues>
            1.0244352370500565e-01 -9.5472484827041626e-01</leafValues></_>
        <_>
          <internalNodes>
            0 -1 90 -1.7996024107560515e-03</internalNodes>
          <leafValues>
            4.7412523627281189e-01 -2.0066837966442108e-01</leafValues></_>
        <_>
          <internalNodes>
            0 -1 50 5.4538557305932045e-03</internalNodes>
          <leafValues>
            1.1962341517210007e-01 -7.5016140937805176e-01</leafValues></_>
        <_>
          <internalNodes>
            0 -1 51 -4.6694227494299412e-03</internalNodes>
          <leafValues>
            -7.3574537038803101e-01 9.1558806598186493e-02</leafValues></_>
        <_>
          <internalNodes>
            0 -1 127 3.3148145303130150e-03</internalNodes>
          <leafValues>
            -2.6883786916732788e-01 3.2558876276016235e-01</leafValues></_>
        <_>
          <internalNodes>
            0 -1 211 1.8046270997729152e-04</internalNodes>
          <leafValues>
            1.5685781836509705e-01 -5.4453575611114502e-01</leafValues></_>
        <_>
          <internalNodes>
            0 -1 163 -2.4129984376486391e-04</internalNodes>
          <leafValues>
            3.0102869868278503e-01 -2.6335248351097107e-01</leafValues></_>
        <_>
          <internalNodes>
            0 -1 80 2.6894481852650642e-03</internalNodes>
          <leafValues>
            -1.2311926484107971e-01 6.6991120576858521e-01</leafValues></_>
        <_>
          <internalNodes>
            0 -1 5 -2.4201394990086555e-03</internalNodes>
          <leafValues>
            -4.5738184452056885e-01 2.1917244791984558e-01</leafValues></_>
        <_>
          <internalNodes>
            0 -1 53 2.2333581000566483e-02</internalNodes>
          <leafValues>
            9.7705595195293427e-02 -8.7683451175689697e-01</leafValues></_>
        <_>
          <internalNodes>
            0 -1 75 -3.3433171920478344e-03</internalNodes>
          <leafValues>
            -3.5212096571922302e-01 2.3180893063545227e-01</leafValues></_>
        <_>
          <internalNodes>
            0 -1 183 -5.2564486395567656e-04</internalNodes>
          <leafValues>
            4.6425366401672363e-01 -2.0049540698528290e-01</leafValues></_>
        <_>
          <internalNodes>
            0 -1 191 -1.2122545158490539e-03</internalNodes>
          <leafValues>
            -4.8947599530220032e-01 1.7127221822738647e-01</leafValues></_>
        <_>
          <internalNodes>
            0 -1 23 3.1452672556042671e-03</internalNodes>
          <leafValues>
            -1.2108904868364334e-01 8.1808394193649292e-01</leafValues></_>
        <_>
          <internalNodes>
            0 -1 118 2.2216215729713440e-03</internalNodes>
          <leafValues>
            1.8702700734138489e-01 -4.9460253119468689e-01</leafValues></_></weakClassifiers></_>
    <!-- stage 13 -->
    <_>
      <maxWeakCount>18</maxWeakCount>
      <stageThreshold>-9.0163117647171021e-01</stageThreshold>
      <weakClassifiers>
        <_>
          <internalNodes>
            0 -1 61 6.7472361028194427e-02</internalNodes>
          <leafValues>
            -4.0282684564590454e-01 8.2352942228317261e-01</leafValues></_>
        <_>
          <internalNodes>
            0 -1 232 3.3382864785380661e-04</internalNodes>
          <leafValues>
            -2.5220051407814026e-01 3.4613105654716492e-01</leafValues></_>
        <_>
          <internalNodes>
            0 -1 243 -9.0321525931358337e-04</internalNodes>
          <leafValues>
            -6.9289046525955200e-01 1.4303922653198242e-01</leafValues></_>
        <_>
          <internalNodes>
            0 -1 207 3.1122840940952301e-02</internalNodes>
          <leafValues>
            -1.6950662434101105e-01 4.7455331683158875e-01</leafValues></_>
        <_>
          <internalNodes>
            0 -1 39 -2.7434597723186016e-04</internalNodes>
          <leafValues>
            -4.6435156464576721e-01 1.8126900494098663e-01</leafValues></_>
        <_>
          <internalNodes>
            0 -1 210 -1.4698165468871593e-03</internalNodes>
          <leafValues>
            4.3077838420867920e-01 -1.9917598366737366e-01</leafValues></_>
        <_>
          <internalNodes>
            0 -1 231 -7.8286025673151016e-03</internalNodes>
          <leafValues>
            4.8244765400886536e-01 -1.6755169630050659e-01</leafValues></_>
        <_>
          <internalNodes>
            0 -1 39 6.4103776821866632e-04</internalNodes>
          <leafValues>
            1.1832363903522491e-01 -8.8891071081161499e-01</leafValues></_>
        <_>
          <internalNodes>
            0 -1 79 -2.9887729324400425e-03</internalNodes>
          <leafValues>
            4.6991994976997375e-01 -1.8465119600296021e-01</leafValues></_>
        <_>
          <internalNodes>
            0 -1 122 8.8101420551538467e-03</internalNodes>
          <leafValues>
            -1.0135032981634140e-01 7.0307660102844238e-01</leafValues></_>
        <_>
          <internalNodes>
            0 -1 116 -8.3021922037005424e-03</internalNodes>
          <leafValues>
            -3.0048900842666626e-01 2.7745378017425537e-01</leafValues></_>
        <_>
          <internalNodes>
            0 -1 158 -1.6759310383349657e-03</internalNodes>
          <leafValues>
            5.2290308475494385e-01 -1.7255495488643646e-01</leafValues></_>
        <_>
          <internalNodes>
            0 -1 48 -1.6731587238609791e-03</internalNodes>
          <leafValues>
            4.9588492512702942e-01 -2.2380396723747253e-01</leafValues></_>
        <_>
          <internalNodes>
            0 -1 55 1.4628717675805092e-02</internalNodes>
          <leafValues>
            -1.2226909399032593e-01 5.8778655529022217e-01</leafValues></_>
        <_>
          <internalNodes>
            0 -1 33 1.6560428775846958e-04</internalNodes>
          <leafValues>
            1.6622623801231384e-01 -5.9236520528793335e-01</leafValues></_>
        <_>
          <internalNodes>
            0 -1 30 -6.4166524680331349e-04</internalNodes>
          <leafValues>
            3.2390752434730530e-01 -2.7330479025840759e-01</leafValues></_>
        <_>
          <internalNodes>
            0 -1 115 3.0452458304353058e-04</internalNodes>
          <leafValues>
            -1.7769977450370789e-01 5.0286585092544556e-01</leafValues></_>
        <_>
          <internalNodes>
            0 -1 41 6.9908949080854654e-04</internalNodes>
          <leafValues>
            1.5789571404457092e-01 -6.5303784608840942e-01</leafValues></_></weakClassifiers></_>
    <!-- stage 14 -->
    <_>
      <maxWeakCount>14</maxWeakCount>
      <stageThreshold>-8.6944293975830078e-01</stageThreshold>
      <weakClassifiers>
        <_>
          <internalNodes>
            0 -1 104 5.3616784512996674e-02</internalNodes>
          <leafValues>
            -4.0740740299224854e-01 9.3939393758773804e-01</leafValues></_>
        <_>
          <internalNodes>
            0 -1 156 9.5443502068519592e-03</internalNodes>
          <leafValues>
            5.2163142710924149e-02 -1.</leafValues></_>
        <_>
          <internalNodes>
            0 -1 172 6.0970126651227474e-04</internalNodes>
          <leafValues>
            -3.3703380823135376e-01 3.4176978468894958e-01</leafValues></_>
        <_>
          <internalNodes>
            0 -1 188 1.3717724941670895e-03</internalNodes>
          <leafValues>
            5.9804309159517288e-02 -7.5556308031082153e-01</leafValues></_>
        <_>
          <internalNodes>
            0 -1 107 1.8713153898715973e-02</internalNodes>
          <leafValues>
            -2.0205144584178925e-01 4.0774029493331909e-01</leafValues></_>
        <_>
          <internalNodes>
            0 -1 186 1.0256692767143250e-02</internalNodes>
          <leafValues>
            -1.9660437107086182e-01 5.6341552734375000e-01</leafValues></_>
        <_>
          <internalNodes>
            0 -1 42 -3.4925440559163690e-05</internalNodes>
          <leafValues>
            2.6833221316337585e-01 -3.1200972199440002e-01</leafValues></_>
        <_>
          <internalNodes>
            0 -1 187 -3.5452429438009858e-04</internalNodes>
          <leafValues>
            -8.1065881252288818e-01 1.0423157364130020e-01</leafValues></_>
        <_>
          <internalNodes>
            0 -1 85 2.1156662842258811e-04</internalNodes>
          <leafValues>
            -2.7514994144439697e-01 3.7248414754867554e-01</leafValues></_>
        <_>
          <internalNodes>
            0 -1 233 -1.3939531520009041e-02</internalNodes>
          <leafValues>
            -7.4915206432342529e-01 1.2394883483648300e-01</leafValues></_>
        <_>
          <internalNodes>
            0 -1 153 9.9455937743186951e-04</internalNodes>
          <leafValues>
            -1.9798253476619720e-01 4.4538140296936035e-01</leafValues></_>
        <_>
          <internalNodes>
            0 -1 226 -1.1782199144363403e-03</internalNodes>
          <leafValues>
            9.5348469913005829e-02 -9.7271311283111572e-01</leafValues></_>
        <_>
          <internalNodes>
            0 -1 237 -1.0039672815764789e-05</internalNodes>
          <leafValues>
            2.6624482870101929e-01 -3.5813435912132263e-01</leafValues></_>
        <_>
          <internalNodes>
            0 -1 96 -1.2834035442210734e-04</internalNodes>
          <leafValues>
            3.1380760669708252e-01 -2.7771124243736267e-01</leafValues></_></weakClassifiers></_>
    <!-- stage 15 -->
    <_>
      <maxWeakCount>16</maxWeakCount>
      <stageThreshold>-7.9771953821182251e-01</stageThreshold>
      <weakClassifiers>
        <_>
          <internalNodes>
            0 -1 169 -6.4653828740119934e-02</internalNodes>
          <leafValues>
            3.7349396944046021e-01 -4.4680851697921753e-01</leafValues></_>
        <_>
          <internalNodes>
            0 -1 157 -3.7284317659214139e-04</internalNodes>
          <leafValues>
            3.3974972367286682e-01 -2.9495242238044739e-01</leafValues></_>
        <_>
          <internalNodes>
            0 -1 228 -2.9053608886897564e-03</internalNodes>
          <leafValues>
            5.7123899459838867e-01 -1.5363937616348267e-01</leafValues></_>
        <_>
          <internalNodes>
            0 -1 141 -3.0020833946764469e-03</internalNodes>
          <leafValues>
            5.5216026306152344e-01 -1.8371395766735077e-01</leafValues></_>
        <_>
          <internalNodes>
            0 -1 9 -5.7255020365118980e-03</internalNodes>
          <leafValues>
            -5.2773374319076538e-01 1.6855902969837189e-01</leafValues></_>
        <_>
          <internalNodes>
            0 -1 143 2.0156544633209705e-04</internalNodes>
          <leafValues>
            -2.4341884255409241e-01 3.3324015140533447e-01</leafValues></_>
        <_>
          <internalNodes>
            0 -1 44 -1.5187081694602966e-01</internalNodes>
          <leafValues>
            -3.1461292505264282e-01 2.7679738402366638e-01</leafValues></_>
        <_>
          <internalNodes>
            0 -1 11 -2.7727365493774414e-01</internalNodes>
          <leafValues>
            2.8931999206542969e-01 -3.2933759689331055e-01</leafValues></_>
        <_>
          <internalNodes>
            0 -1 16 3.4091965062543750e-05</internalNodes>
          <leafValues>
            -3.0444580316543579e-01 3.5683602094650269e-01</leafValues></_>
        <_>
          <internalNodes>
            0 -1 76 2.0668618381023407e-03</internalNodes>
          <leafValues>
            -1.7256064713001251e-01 5.2557814121246338e-01</leafValues></_>
        <_>
          <internalNodes>
            0 -1 71 -1.8656149506568909e-02</internalNodes>
          <leafValues>
            8.9159679412841797e-01 -1.2142896652221680e-01</leafValues></_>
        <_>
          <internalNodes>
            0 -1 77 4.4728399370796978e-04</internalNodes>
          <leafValues>
            1.7750546336174011e-01 -6.8976360559463501e-01</leafValues></_>
        <_>
          <internalNodes>
            0 -1 202 1.8800057470798492e-02</internalNodes>
          <leafValues>
            -2.2483761608600616e-01 4.6160823106765747e-01</leafValues></_>
        <_>
          <internalNodes>
            0 -1 14 -4.7101378440856934e-03</internalNodes>
          <leafValues>
            3.8177353143692017e-01 -2.9728457331657410e-01</leafValues></_>
        <_>
          <internalNodes>
            0 -1 218 -3.6668856628239155e-03</internalNodes>
          <leafValues>
            5.9432816505432129e-01 -1.8882504105567932e-01</leafValues></_>
        <_>
          <internalNodes>
            0 -1 46 -6.5579009242355824e-04</internalNodes>
          <leafValues>
            -3.2766699790954590e-01 3.4535539150238037e-01</leafValues></_></weakClassifiers></_>
    <!-- stage 16 -->
    <_>
      <maxWeakCount>20</maxWeakCount>
      <stageThreshold>-9.2231434583663940e-01</stageThreshold>
      <weakClassifiers>
        <_>
          <internalNodes>
            0 -1 134 -5.0460793077945709e-02</internalNodes>
          <leafValues>
            3.0097088217735291e-01 -4.6478873491287231e-01</leafValues></_>
        <_>
          <internalNodes>
            0 -1 2 -3.5601621493697166e-03</internalNodes>
          <leafValues>
            5.5976575613021851e-01 -1.6618585586547852e-01</leafValues></_>
        <_>
          <internalNodes>
            0 -1 52 -1.3679832220077515e-02</internalNodes>
          <leafValues>
            4.4956609606742859e-01 -1.9647811353206635e-01</leafValues></_>
        <_>
          <internalNodes>
            0 -1 223 4.0088951587677002e-02</internalNodes>
          <leafValues>
            -1.9692139327526093e-01 3.8990366458892822e-01</leafValues></_>
        <_>
          <internalNodes>
            0 -1 177 1.9335947581566870e-04</internalNodes>
          <leafValues>
            -2.5429174304008484e-01 3.4248244762420654e-01</leafValues></_>
        <_>
          <internalNodes>
            0 -1 152 -5.2341815084218979e-02</internalNodes>
          <leafValues>
            1.1924407631158829e-01 -7.4890321493148804e-01</leafValues></_>
        <_>
          <internalNodes>
            0 -1 121 9.8002354206983000e-05</internalNodes>
          <leafValues>
            1.8795518577098846e-01 -4.4849288463592529e-01</leafValues></_>
        <_>
          <internalNodes>
            0 -1 130 -3.0037434771656990e-03</internalNodes>
          <leafValues>
            -1.6956107318401337e-01 5.1086866855621338e-01</leafValues></_>
        <_>
          <internalNodes>
            0 -1 17 -3.2796856248751283e-04</internalNodes>
          <leafValues>
            -6.6339904069900513e-01 1.1907204985618591e-01</leafValues></_>
        <_>
          <internalNodes>
            0 -1 124 -1.7727443482726812e-03</internalNodes>
          <leafValues>
            7.2349148988723755e-01 -1.4045371115207672e-01</leafValues></_>
        <_>
          <internalNodes>
            0 -1 190 1.1182681191712618e-03</internalNodes>
          <leafValues>
            1.1834681779146194e-01 -8.5532647371292114e-01</leafValues></_>
        <_>
          <internalNodes>
            0 -1 229 -2.9984209686517715e-03</internalNodes>
          <leafValues>
            7.2472196817398071e-01 -1.4782330393791199e-01</leafValues></_>
        <_>
          <internalNodes>
            0 -1 78 -4.4082154636271298e-04</internalNodes>
          <leafValues>
            5.6893253326416016e-01 -1.4000722765922546e-01</leafValues></_>
        <_>
          <internalNodes>
            0 -1 135 1.9421144388616085e-03</internalNodes>
          <leafValues>
            -1.4284138381481171e-01 5.8528053760528564e-01</leafValues></_>
        <_>
          <internalNodes>
            0 -1 199 3.6428085877560079e-04</internalNodes>
          <leafValues>
            1.9969309866428375e-01 -4.7436943650245667e-01</leafValues></_>
        <_>
          <internalNodes>
            0 -1 192 1.2041075155138969e-02</internalNodes>
          <leafValues>
            -2.8471776843070984e-01 3.5322409868240356e-01</leafValues></_>
        <_>
          <internalNodes>
            0 -1 206 -1.8815119983628392e-04</internalNodes>
          <leafValues>
            2.6846203207969666e-01 -3.7921583652496338e-01</leafValues></_>
        <_>
          <internalNodes>
            0 -1 32 9.6912350272759795e-05</internalNodes>
          <leafValues>
            2.1911220252513885e-01 -4.4120207428932190e-01</leafValues></_>
        <_>
          <internalNodes>
            0 -1 212 -6.9146635942161083e-03</internalNodes>
          <leafValues>
            8.0382651090621948e-01 -1.3474713265895844e-01</leafValues></_>
        <_>
          <internalNodes>
            0 -1 7 3.0727002769708633e-02</internalNodes>
          <leafValues>
            -8.1951163709163666e-02 9.8432695865631104e-01</leafValues></_></weakClassifiers></_></stages>
  <features>
    <_>
      <rects>
        <_>
          0 0 9 2 -1.</_>
        <_>
          3 0 3 2 2.</_></rects>
      <tilted>0</tilted></_>
    <_>
      <rects>
        <_>
          0 1 2 6 -1.</_>
        <_>
          0 1 1 3 2.</_>
        <_>
          1 4 1 3 2.</_></rects>
      <tilted>0</tilted></_>
    <_>
      <rects>
        <_>
          0 1 12 2 -1.</_>
        <_>
          0 1 6 1 2.</_>
        <_>
          6 2 6 1 2.</_></rects>
      <tilted>0</tilted></_>
    <_>
      <rects>
        <_>
          0 3 4 4 -1.</_>
        <_>
          0 3 2 2 2.</_>
        <_>
          2 5 2 2 2.</_></rects>
      <tilted>0</tilted></_>
    <_>
      <rects>
        <_>
          0 4 2 4 -1.</_>
        <_>
          0 6 2 2 2.</_></rects>
      <tilted>0</tilted></_>
    <_>
      <rects>
        <_>
          0 4 7 4 -1.</_>
        <_>
          0 6 7 2 2.</_></rects>
      <tilted>0</tilted></_>
    <_>
      <rects>
        <_>
          0 8 2 2 -1.</_>
        <_>
          0 8 1 1 2.</_>
        <_>
          1 9 1 1 2.</_></rects>
      <tilted>0</tilted></_>
    <_>
      <rects>
        <_>
          0 11 2 24 -1.</_>
        <_>
          0 23 2 12 2.</_></rects>
      <tilted>0</tilted></_>
    <_>
      <rects>
        <_>
          0 13 8 33 -1.</_>
        <_>
          4 13 4 33 2.</_></rects>
      <tilted>0</tilted></_>
    <_>
      <rects>
        <_>
          0 14 20 1 -1.</_>
        <_>
          10 14 10 1 2.</_></rects>
      <tilted>0</tilted></_>
    <_>
      <rects>
        <_>
          0 15 1 33 -1.</_>
        <_>
          0 26 1 11 2.</_></rects>
      <tilted>0</tilted></_>
    <_>
      <rects>
        <_>
          0 15 12 32 -1.</_>
        <_>
          4 15 4 32 2.</_></rects>
      <tilted>0</tilted></_>
    <_>
      <rects>
        <_>
          0 15 10 30 -1.</_>
        <_>
          5 15 5 30 2.</_></rects>
      <tilted>0</tilted></_>
    <_>
      <rects>
        <_>
          0 18 14 13 -1.</_>
        <_>
          7 18 7 13 2.</_></rects>
      <tilted>0</tilted></_>
    <_>
      <rects>
        <_>
          0 20 5 22 -1.</_>
        <_>
          0 31 5 11 2.</_></rects>
      <tilted>0</tilted></_>
    <_>
      <rects>
        <_>
          0 24 14 6 -1.</_>
        <_>
          7 24 7 6 2.</_></rects>
      <tilted>0</tilted></_>
    <_>
      <rects>
        <_>
          0 25 2 6 -1.</_>
        <_>
          1 25 1 6 2.</_></rects>
      <tilted>0</tilted></_>
    <_>
      <rects>
        <_>
          0 26 2 4 -1.</_>
        <_>
          0 26 1 2 2.</_>
        <_>
          1 28 1 2 2.</_></rects>
      <tilted>0</tilted></_>
    <_>
      <rects>
        <_>
          0 27 10 20 -1.</_>
        <_>
          5 27 5 20 2.</_></rects>
      <tilted>0</tilted></_>
    <_>
      <rects>
        <_>
          0 30 2 2 -1.</_>
        <_>
          0 30 1 1 2.</_>
        <_>
          1 31 1 1 2.</_></rects>
      <tilted>0</tilted></_>
    <_>
      <rects>
        <_>
          0 31 2 10 -1.</_>
        <_>
          0 31 1 5 2.</_>
        <_>
          1 36 1 5 2.</_></rects>
      <tilted>0</tilted></_>
    <_>
      <rects>
        <_>
          0 33 4 7 -1.</_>
        <_>
          2 33 2 7 2.</_></rects>
      <tilted>0</tilted></_>
    <_>
      <rects>
        <_>
          0 33 24 3 -1.</_>
        <_>
          12 33 12 3 2.</_></rects>
      <tilted>0</tilted></_>
    <_>
      <rects>
        <_>
          0 34 3 4 -1.</_>
        <_>
          0 36 3 2 2.</_></rects>
      <tilted>0</tilted></_>
    <_>
      <rects>
        <_>
          1 0 12 12 -1.</_>
        <_>
          1 0 6 6 2.</_>
        <_>
          7 6 6 6 2.</_></rects>
      <tilted>0</tilted></_>
    <_>
      <rects>
        <_>
          1 1 2 6 -1.</_>
        <_>
          1 1 1 3 2.</_>
        <_>
          2 4 1 3 2.</_></rects>
      <tilted>0</tilted></_>
    <_>
      <rects>
        <_>
          1 1 10 18 -1.</_>
        <_>
          1 10 10 9 2.</_></rects>
      <tilted>0</tilted></_>
    <_>
      <rects>
        <_>
          1 6 9 10 -1.</_>
        <_>
          1 11 9 5 2.</_></rects>
      <tilted>0</tilted></_>
    <_>
      <rects>
        <_>
          1 7 22 2 -1.</_>
        <_>
          1 8 22 1 2.</_></rects>
      <tilted>0</tilted></_>
    <_>
      <rects>
        <_>
          1 8 6 8 -1.</_>
        <_>
          4 8 3 8 2.</_></rects>
      <tilted>0</tilted></_>
    <_>
      <rects>
        <_>
          1 11 6 2 -1.</_>
        <_>
          1 12 6 1 2.</_></rects>
      <tilted>0</tilted></_>
    <_>
      <rects>
        <_>
          1 15 8 15 -1.</_>
        <_>
          1 20 8 5 2.</_></rects>
      <tilted>0</tilted></_>
    <_>
      <rects>
        <_>
          1 20 1 2 -1.</_>
        <_>
          1 21 1 1 2.</_></rects>
      <tilted>0</tilted></_>
    <_>
      <rects>
        <_>
          1 21 2 1 -1.</_>
        <_>
          2 21 1 1 2.</_></rects>
      <tilted>0</tilted></_>
    <_>
      <rects>
        <_>
          1 24 2 8 -1.</_>
        <_>
          1 24 1 4 2.</_>
        <_>
          2 28 1 4 2.</_></rects>
      <tilted>0</tilted></_>
    <_>
      <rects>
        <_>
          1 24 20 24 -1.</_>
        <_>
          11 24 10 24 2.</_></rects>
      <tilted>0</tilted></_>
    <_>
      <rects>
        <_>
          1 26 2 2 -1.</_>
        <_>
          2 26 1 2 2.</_></rects>
      <tilted>0</tilted></_>
    <_>
      <rects>
        <_>
          1 44 6 4 -1.</_>
        <_>
          4 44 3 4 2.</_></rects>
      <tilted>0</tilted></_>
    <_>
      <rects>
        <_>
          1 45 2 3 -1.</_>
        <_>
          2 45 1 3 2.</_></rects>
      <tilted>0</tilted></_>
    <_>
      <rects>
        <_>
          1 47 4 1 -1.</_>
        <_>
          3 47 2 1 2.</_></rects>
      <tilted>0</tilted></_>
    <_>
      <rects>
        <_>
          2 0 10 6 -1.</_>
        <_>
          2 0 5 3 2.</_>
        <_>
          7 3 5 3 2.</_></rects>
      <tilted>0</tilted></_>
    <_>
      <rects>
        <_>
          2 2 2 6 -1.</_>
        <_>
          2 2 1 3 2.</_>
        <_>
          3 5 1 3 2.</_></rects>
      <tilted>0</tilted></_>
    <_>
      <rects>
        <_>
          2 3 3 4 -1.</_>
        <_>
          2 5 3 2 2.</_></rects>
      <tilted>0</tilted></_>
    <_>
      <rects>
        <_>
          2 12 16 12 -1.</_>
        <_>
          2 12 8 6 2.</_>
        <_>
          10 18 8 6 2.</_></rects>
      <tilted>0</tilted></_>
    <_>
      <rects>
        <_>
          2 12 13 18 -1.</_>
        <_>
          2 18 13 6 2.</_></rects>
      <tilted>0</tilted></_>
    <_>
      <rects>
        <_>
          2 16 8 32 -1.</_>
        <_>
          6 16 4 32 2.</_></rects>
      <tilted>0</tilted></_>
    <_>
      <rects>
        <_>
          2 17 4 4 -1.</_>
        <_>
          4 17 2 4 2.</_></rects>
      <tilted>0</tilted></_>
    <_>
      <rects>
        <_>
          2 17 8 3 -1.</_>
        <_>
          6 17 4 3 2.</_></rects>
      <tilted>0</tilted></_>
    <_>
      <rects>
        <_>
          2 17 14 2 -1.</_>
        <_>
          2 18 14 1 2.</_></rects>
      <tilted>0</tilted></_>
    <_>
      <rects>
        <_>
          2 22 18 6 -1.</_>
        <_>
          2 22 9 3 2.</_>
        <_>
          11 25 9 3 2.</_></rects>
      <tilted>0</tilted></_>
    <_>
      <rects>
        <_>
          2 31 16 1 -1.</_>
        <_>
          10 31 8 1 2.</_></rects>
      <tilted>0</tilted></_>
    <_>
      <rects>
        <_>
          2 31 22 1 -1.</_>
        <_>
          13 31 11 1 2.</_></rects>
      <tilted>0</tilted></_>
    <_>
      <rects>
        <_>
          2 34 6 8 -1.</_>
        <_>
          5 34 3 8 2.</_></rects>
      <tilted>0</tilted></_>
    <_>
      <rects>
        <_>
          2 35 20 4 -1.</_>
        <_>
          12 35 10 4 2.</_></rects>
      <tilted>0</tilted></_>
    <_>
      <rects>
        <_>
          2 38 4 2 -1.</_>
        <_>
          4 38 2 2 2.</_></rects>
      <tilted>0</tilted></_>
    <_>
      <rects>
        <_>
          2 39 12 8 -1.</_>
        <_>
          2 39 6 4 2.</_>
        <_>
          8 43 6 4 2.</_></rects>
      <tilted>0</tilted></_>
    <_>
      <rects>
        <_>
          3 3 6 21 -1.</_>
        <_>
          6 3 3 21 2.</_></rects>
      <tilted>0</tilted></_>
    <_>
      <rects>
        <_>
          3 4 15 22 -1.</_>
        <_>
          3 15 15 11 2.</_></rects>
      <tilted>0</tilted></_>
    <_>
      <rects>
        <_>
          3 10 8 2 -1.</_>
        <_>
          3 11 8 1 2.</_></rects>
      <tilted>0</tilted></_>
    <_>
      <rects>
        <_>
          3 13 6 10 -1.</_>
        <_>
          3 18 6 5 2.</_></rects>
      <tilted>0</tilted></_>
    <_>
      <rects>
        <_>
          3 14 6 4 -1.</_>
        <_>
          3 14 3 2 2.</_>
        <_>
          6 16 3 2 2.</_></rects>
      <tilted>0</tilted></_>
    <_>
      <rects>
        <_>
          3 16 8 24 -1.</_>
        <_>
          3 16 4 12 2.</_>
        <_>
          7 28 4 12 2.</_></rects>
      <tilted>0</tilted></_>
    <_>
      <rects>
        <_>
          3 38 18 2 -1.</_>
        <_>
          9 38 6 2 2.</_></rects>
      <tilted>0</tilted></_>
    <_>
      <rects>
        <_>
          3 47 18 1 -1.</_>
        <_>
          12 47 9 1 2.</_></rects>
      <tilted>0</tilted></_>
    <_>
      <rects>
        <_>
          4 4 8 1 -1.</_>
        <_>
          8 4 4 1 2.</_></rects>
      <tilted>0</tilted></_>
    <_>
      <rects>
        <_>
          4 7 3 9 -1.</_>
        <_>
          4 10 3 3 2.</_></rects>
      <tilted>0</tilted></_>
    <_>
      <rects>
        <_>
          4 10 2 16 -1.</_>
        <_>
          4 10 1 8 2.</_>
        <_>
          5 18 1 8 2.</_></rects>
      <tilted>0</tilted></_>
    <_>
      <rects>
        <_>
          4 10 13 30 -1.</_>
        <_>
          4 20 13 10 2.</_></rects>
      <tilted>0</tilted></_>
    <_>
      <rects>
        <_>
          4 11 20 20 -1.</_>
        <_>
          4 11 10 10 2.</_>
        <_>
          14 21 10 10 2.</_></rects>
      <tilted>0</tilted></_>
    <_>
      <rects>
        <_>
          4 15 7 2 -1.</_>
        <_>
          4 16 7 1 2.</_></rects>
      <tilted>0</tilted></_>
    <_>
      <rects>
        <_>
          4 19 18 1 -1.</_>
        <_>
          13 19 9 1 2.</_></rects>
      <tilted>0</tilted></_>
    <_>
      <rects>
        <_>
          4 20 10 12 -1.</_>
        <_>
          4 20 5 6 2.</_>
        <_>
          9 26 5 6 2.</_></rects>
      <tilted>0</tilted></_>
    <_>
      <rects>
        <_>
          4 21 16 21 -1.</_>
        <_>
          4 28 16 7 2.</_></rects>
      <tilted>0</tilted></_>
    <_>
      <rects>
        <_>
          4 25 10 14 -1.</_>
        <_>
          4 25 5 7 2.</_>
        <_>
          9 32 5 7 2.</_></rects>
      <tilted>0</tilted></_>
    <_>
      <rects>
        <_>
          4 35 7 12 -1.</_>
        <_>
          4 41 7 6 2.</_></rects>
      <tilted>0</tilted></_>
    <_>
      <rects>
        <_>
          4 36 18 6 -1.</_>
        <_>
          13 36 9 6 2.</_></rects>
      <tilted>0</tilted></_>
    <_>
      <rects>
        <_>
          4 42 6 4 -1.</_>
        <_>
          4 42 3 2 2.</_>
        <_>
          7 44 3 2 2.</_></rects>
      <tilted>0</tilted></_>
    <_>
      <rects>
        <_>
          4 44 2 3 -1.</_>
        <_>
          5 44 1 3 2.</_></rects>
      <tilted>0</tilted></_>
    <_>
      <rects>
        <_>
          5 4 2 2 -1.</_>
        <_>
          6 4 1 2 2.</_></rects>
      <tilted>0</tilted></_>
    <_>
      <rects>
        <_>
          5 4 14 2 -1.</_>
        <_>
          5 5 14 1 2.</_></rects>
      <tilted>0</tilted></_>
    <_>
      <rects>
        <_>
          5 7 8 2 -1.</_>
        <_>
          5 7 4 1 2.</_>
        <_>
          9 8 4 1 2.</_></rects>
      <tilted>0</tilted></_>
    <_>
      <rects>
        <_>
          5 7 5 39 -1.</_>
        <_>
          5 20 5 13 2.</_></rects>
      <tilted>0</tilted></_>
    <_>
      <rects>
        <_>
          5 11 4 3 -1.</_>
        <_>
          7 11 2 3 2.</_></rects>
      <tilted>0</tilted></_>
    <_>
      <rects>
        <_>
          5 11 4 25 -1.</_>
        <_>
          7 11 2 25 2.</_></rects>
      <tilted>0</tilted></_>
    <_>
      <rects>
        <_>
          5 20 19 2 -1.</_>
        <_>
          5 21 19 1 2.</_></rects>
      <tilted>0</tilted></_>
    <_>
      <rects>
        <_>
          5 28 2 6 -1.</_>
        <_>
          5 28 1 3 2.</_>
        <_>
          6 31 1 3 2.</_></rects>
      <tilted>0</tilted></_>
    <_>
      <rects>
        <_>
          5 30 8 10 -1.</_>
        <_>
          9 30 4 10 2.</_></rects>
      <tilted>0</tilted></_>
    <_>
      <rects>
        <_>
          5 33 4 9 -1.</_>
        <_>
          7 33 2 9 2.</_></rects>
      <tilted>0</tilted></_>
    <_>
      <rects>
        <_>
          5 34 4 9 -1.</_>
        <_>
          7 34 2 9 2.</_></rects>
      <tilted>0</tilted></_>
    <_>
      <rects>
        <_>
          5 39 16 8 -1.</_>
        <_>
          5 43 16 4 2.</_></rects>
      <tilted>0</tilted></_>
    <_>
      <rects>
        <_>
          5 44 14 2 -1.</_>
        <_>
          5 44 7 1 2.</_>
        <_>
          12 45 7 1 2.</_></rects>
      <tilted>0</tilted></_>
    <_>
      <rects>
        <_>
          5 44 14 4 -1.</_>
        <_>
          5 46 14 2 2.</_></rects>
      <tilted>0</tilted></_>
    <_>
      <rects>
        <_>
          6 0 7 28 -1.</_>
        <_>
          6 14 7 14 2.</_></rects>
      <tilted>0</tilted></_>
    <_>
      <rects>
        <_>
          6 1 6 4 -1.</_>
        <_>
          6 3 6 2 2.</_></rects>
      <tilted>0</tilted></_>
    <_>
      <rects>
        <_>
          6 1 8 2 -1.</_>
        <_>
          6 2 8 1 2.</_></rects>
      <tilted>0</tilted></_>
    <_>
      <rects>
        <_>
          6 3 7 2 -1.</_>
        <_>
          6 4 7 1 2.</_></rects>
      <tilted>0</tilted></_>
    <_>
      <rects>
        <_>
          6 4 6 2 -1.</_>
        <_>
          6 4 3 1 2.</_>
        <_>
          9 5 3 1 2.</_></rects>
      <tilted>0</tilted></_>
    <_>
      <rects>
        <_>
          6 5 4 10 -1.</_>
        <_>
          6 5 2 5 2.</_>
        <_>
          8 10 2 5 2.</_></rects>
      <tilted>0</tilted></_>
    <_>
      <rects>
        <_>
          6 6 4 4 -1.</_>
        <_>
          6 6 2 2 2.</_>
        <_>
          8 8 2 2 2.</_></rects>
      <tilted>0</tilted></_>
    <_>
      <rects>
        <_>
          6 6 4 16 -1.</_>
        <_>
          6 6 2 8 2.</_>
        <_>
          8 14 2 8 2.</_></rects>
      <tilted>0</tilted></_>
    <_>
      <rects>
        <_>
          6 13 4 2 -1.</_>
        <_>
          6 13 2 1 2.</_>
        <_>
          8 14 2 1 2.</_></rects>
      <tilted>0</tilted></_>
    <_>
      <rects>
        <_>
          6 18 4 8 -1.</_>
        <_>
          6 22 4 4 2.</_></rects>
      <tilted>0</tilted></_>
    <_>
      <rects>
        <_>
          6 18 13 8 -1.</_>
        <_>
          6 22 13 4 2.</_></rects>
      <tilted>0</tilted></_>
    <_>
      <rects>
        <_>
          6 19 6 20 -1.</_>
        <_>
          6 19 3 10 2.</_>
        <_>
          9 29 3 10 2.</_></rects>
      <tilted>0</tilted></_>
    <_>
      <rects>
        <_>
          6 19 6 22 -1.</_>
        <_>
          6 19 3 11 2.</_>
        <_>
          9 30 3 11 2.</_></rects>
      <tilted>0</tilted></_>
    <_>
      <rects>
        <_>
          6 21 8 16 -1.</_>
        <_>
          6 21 4 8 2.</_>
        <_>
          10 29 4 8 2.</_></rects>
      <tilted>0</tilted></_>
    <_>
      <rects>
        <_>
          6 26 8 19 -1.</_>
        <_>
          10 26 4 19 2.</_></rects>
      <tilted>0</tilted></_>
    <_>
      <rects>
        <_>
          6 29 8 15 -1.</_>
        <_>
          10 29 4 15 2.</_></rects>
      <tilted>0</tilted></_>
    <_>
      <rects>
        <_>
          6 32 8 11 -1.</_>
        <_>
          10 32 4 11 2.</_></rects>
      <tilted>0</tilted></_>
    <_>
      <rects>
        <_>
          6 36 13 12 -1.</_>
        <_>
          6 42 13 6 2.</_></rects>
      <tilted>0</tilted></_>
    <_>
      <rects>
        <_>
          7 2 8 2 -1.</_>
        <_>
          7 3 8 1 2.</_></rects>
      <tilted>0</tilted></_>
    <_>
      <rects>
        <_>
          7 3 17 20 -1.</_>
        <_>
          7 13 17 10 2.</_></rects>
      <tilted>0</tilted></_>
    <_>
      <rects>
        <_>
          7 5 2 6 -1.</_>
        <_>
          7 5 1 3 2.</_>
        <_>
          8 8 1 3 2.</_></rects>
      <tilted>0</tilted></_>
    <_>
      <rects>
        <_>
          7 10 2 2 -1.</_>
        <_>
          8 10 1 2 2.</_></rects>
      <tilted>0</tilted></_>
    <_>
      <rects>
        <_>
          7 11 15 10 -1.</_>
        <_>
          12 11 5 10 2.</_></rects>
      <tilted>0</tilted></_>
    <_>
      <rects>
        <_>
          7 14 1 2 -1.</_>
        <_>
          7 15 1 1 2.</_></rects>
      <tilted>0</tilted></_>
    <_>
      <rects>
        <_>
          7 15 1 15 -1.</_>
        <_>
          7 20 1 5 2.</_></rects>
      <tilted>0</tilted></_>
    <_>
      <rects>
        <_>
          7 28 4 6 -1.</_>
        <_>
          7 28 2 3 2.</_>
        <_>
          9 31 2 3 2.</_></rects>
      <tilted>0</tilted></_>
    <_>
      <rects>
        <_>
          7 34 10 4 -1.</_>
        <_>
          7 36 10 2 2.</_></rects>
      <tilted>0</tilted></_>
    <_>
      <rects>
        <_>
          7 36 10 12 -1.</_>
        <_>
          7 42 10 6 2.</_></rects>
      <tilted>0</tilted></_>
    <_>
      <rects>
        <_>
          7 40 4 2 -1.</_>
        <_>
          7 41 4 1 2.</_></rects>
      <tilted>0</tilted></_>
    <_>
      <rects>
        <_>
          7 46 2 1 -1.</_>
        <_>
          8 46 1 1 2.</_></rects>
      <tilted>0</tilted></_>
    <_>
      <rects>
        <_>
          8 3 9 4 -1.</_>
        <_>
          8 5 9 2 2.</_></rects>
      <tilted>0</tilted></_>
    <_>
      <rects>
        <_>
          8 5 1 2 -1.</_>
        <_>
          8 6 1 1 2.</_></rects>
      <tilted>0</tilted></_>
    <_>
      <rects>
        <_>
          8 6 4 1 -1.</_>
        <_>
          10 6 2 1 2.</_></rects>
      <tilted>0</tilted></_>
    <_>
      <rects>
        <_>
          8 12 2 4 -1.</_>
        <_>
          8 14 2 2 2.</_></rects>
      <tilted>0</tilted></_>
    <_>
      <rects>
        <_>
          8 20 7 2 -1.</_>
        <_>
          8 21 7 1 2.</_></rects>
      <tilted>0</tilted></_>
    <_>
      <rects>
        <_>
          8 22 4 12 -1.</_>
        <_>
          8 22 2 6 2.</_>
        <_>
          10 28 2 6 2.</_></rects>
      <tilted>0</tilted></_>
    <_>
      <rects>
        <_>
          9 2 10 8 -1.</_>
        <_>
          14 2 5 8 2.</_></rects>
      <tilted>0</tilted></_>
    <_>
      <rects>
        <_>
          9 5 7 24 -1.</_>
        <_>
          9 17 7 12 2.</_></rects>
      <tilted>0</tilted></_>
    <_>
      <rects>
        <_>
          9 9 1 9 -1.</_>
        <_>
          9 12 1 3 2.</_></rects>
      <tilted>0</tilted></_>
    <_>
      <rects>
        <_>
          9 15 1 2 -1.</_>
        <_>
          9 16 1 1 2.</_></rects>
      <tilted>0</tilted></_>
    <_>
      <rects>
        <_>
          9 17 3 12 -1.</_>
        <_>
          9 21 3 4 2.</_></rects>
      <tilted>0</tilted></_>
    <_>
      <rects>
        <_>
          9 29 2 4 -1.</_>
        <_>
          9 29 1 2 2.</_>
        <_>
          10 31 1 2 2.</_></rects>
      <tilted>0</tilted></_>
    <_>
      <rects>
        <_>
          10 0 1 45 -1.</_>
        <_>
          10 15 1 15 2.</_></rects>
      <tilted>0</tilted></_>
    <_>
      <rects>
        <_>
          10 0 5 6 -1.</_>
        <_>
          10 3 5 3 2.</_></rects>
      <tilted>0</tilted></_>
    <_>
      <rects>
        <_>
          10 0 14 41 -1.</_>
        <_>
          17 0 7 41 2.</_></rects>
      <tilted>0</tilted></_>
    <_>
      <rects>
        <_>
          10 1 3 2 -1.</_>
        <_>
          10 2 3 1 2.</_></rects>
      <tilted>0</tilted></_>
    <_>
      <rects>
        <_>
          10 2 6 12 -1.</_>
        <_>
          10 6 6 4 2.</_></rects>
      <tilted>0</tilted></_>
    <_>
      <rects>
        <_>
          10 5 6 8 -1.</_>
        <_>
          10 5 3 4 2.</_>
        <_>
          13 9 3 4 2.</_></rects>
      <tilted>0</tilted></_>
    <_>
      <rects>
        <_>
          10 6 13 16 -1.</_>
        <_>
          10 14 13 8 2.</_></rects>
      <tilted>0</tilted></_>
    <_>
      <rects>
        <_>
          10 7 13 2 -1.</_>
        <_>
          10 8 13 1 2.</_></rects>
      <tilted>0</tilted></_>
    <_>
      <rects>
        <_>
          10 8 12 6 -1.</_>
        <_>
          10 8 6 3 2.</_>
        <_>
          16 11 6 3 2.</_></rects>
      <tilted>0</tilted></_>
    <_>
      <rects>
        <_>
          10 10 2 10 -1.</_>
        <_>
          10 10 1 5 2.</_>
        <_>
          11 15 1 5 2.</_></rects>
      <tilted>0</tilted></_>
    <_>
      <rects>
        <_>
          10 10 4 1 -1.</_>
        <_>
          12 10 2 1 2.</_></rects>
      <tilted>0</tilted></_>
    <_>
      <rects>
        <_>
          10 14 3 2 -1.</_>
        <_>
          10 15 3 1 2.</_></rects>
      <tilted>0</tilted></_>
    <_>
      <rects>
        <_>
          10 18 12 28 -1.</_>
        <_>
          10 18 6 14 2.</_>
        <_>
          16 32 6 14 2.</_></rects>
      <tilted>0</tilted></_>
    <_>
      <rects>
        <_>
          10 25 9 6 -1.</_>
        <_>
          10 28 9 3 2.</_></rects>
      <tilted>0</tilted></_>
    <_>
      <rects>
        <_>
          11 1 6 1 -1.</_>
        <_>
          14 1 3 1 2.</_></rects>
      <tilted>0</tilted></_>
    <_>
      <rects>
        <_>
          11 5 2 2 -1.</_>
        <_>
          11 6 2 1 2.</_></rects>
      <tilted>0</tilted></_>
    <_>
      <rects>
        <_>
          11 8 2 3 -1.</_>
        <_>
          12 8 1 3 2.</_></rects>
      <tilted>0</tilted></_>
    <_>
      <rects>
        <_>
          11 10 4 4 -1.</_>
        <_>
          11 10 2 2 2.</_>
        <_>
          13 12 2 2 2.</_></rects>
      <tilted>0</tilted></_>
    <_>
      <rects>
        <_>
          11 17 9 15 -1.</_>
        <_>
          11 22 9 5 2.</_></rects>
      <tilted>0</tilted></_>
    <_>
      <rects>
        <_>
          11 19 9 2 -1.</_>
        <_>
          11 20 9 1 2.</_></rects>
      <tilted>0</tilted></_>
    <_>
      <rects>
        <_>
          11 23 6 4 -1.</_>
        <_>
          11 23 3 2 2.</_>
        <_>
          14 25 3 2 2.</_></rects>
      <tilted>0</tilted></_>
    <_>
      <rects>
        <_>
          11 25 6 8 -1.</_>
        <_>
          11 25 3 4 2.</_>
        <_>
          14 29 3 4 2.</_></rects>
      <tilted>0</tilted></_>
    <_>
      <rects>
        <_>
          11 26 7 4 -1.</_>
        <_>
          11 28 7 2 2.</_></rects>
      <tilted>0</tilted></_>
    <_>
      <rects>
        <_>
          11 32 2 4 -1.</_>
        <_>
          11 34 2 2 2.</_></rects>
      <tilted>0</tilted></_>
    <_>
      <rects>
        <_>
          11 32 4 3 -1.</_>
        <_>
          13 32 2 3 2.</_></rects>
      <tilted>0</tilted></_>
    <_>
      <rects>
        <_>
          12 2 4 12 -1.</_>
        <_>
          12 2 2 6 2.</_>
        <_>
          14 8 2 6 2.</_></rects>
      <tilted>0</tilted></_>
    <_>
      <rects>
        <_>
          12 4 6 8 -1.</_>
        <_>
          12 4 3 4 2.</_>
        <_>
          15 8 3 4 2.</_></rects>
      <tilted>0</tilted></_>
    <_>
      <rects>
        <_>
          12 16 2 8 -1.</_>
        <_>
          12 20 2 4 2.</_></rects>
      <tilted>0</tilted></_>
    <_>
      <rects>
        <_>
          12 18 3 4 -1.</_>
        <_>
          13 18 1 4 2.</_></rects>
      <tilted>0</tilted></_>
    <_>
      <rects>
        <_>
          12 18 8 1 -1.</_>
        <_>
          16 18 4 1 2.</_></rects>
      <tilted>0</tilted></_>
    <_>
      <rects>
        <_>
          12 18 7 2 -1.</_>
        <_>
          12 19 7 1 2.</_></rects>
      <tilted>0</tilted></_>
    <_>
      <rects>
        <_>
          12 19 8 20 -1.</_>
        <_>
          12 19 4 10 2.</_>
        <_>
          16 29 4 10 2.</_></rects>
      <tilted>0</tilted></_>
    <_>
      <rects>
        <_>
          12 28 6 13 -1.</_>
        <_>
          15 28 3 13 2.</_></rects>
      <tilted>0</tilted></_>
    <_>
      <rects>
        <_>
          12 42 12 6 -1.</_>
        <_>
          12 45 12 3 2.</_></rects>
      <tilted>0</tilted></_>
    <_>
      <rects>
        <_>
          13 8 2 4 -1.</_>
        <_>
          14 8 1 4 2.</_></rects>
      <tilted>0</tilted></_>
    <_>
      <rects>
        <_>
          13 9 8 38 -1.</_>
        <_>
          13 9 4 19 2.</_>
        <_>
          17 28 4 19 2.</_></rects>
      <tilted>0</tilted></_>
    <_>
      <rects>
        <_>
          13 17 10 14 -1.</_>
        <_>
          13 17 5 7 2.</_>
        <_>
          18 24 5 7 2.</_></rects>
      <tilted>0</tilted></_>
    <_>
      <rects>
        <_>
          13 19 6 1 -1.</_>
        <_>
          15 19 2 1 2.</_></rects>
      <tilted>0</tilted></_>
    <_>
      <rects>
        <_>
          13 25 6 4 -1.</_>
        <_>
          13 27 6 2 2.</_></rects>
      <tilted>0</tilted></_>
    <_>
      <rects>
        <_>
          13 27 4 21 -1.</_>
        <_>
          15 27 2 21 2.</_></rects>
      <tilted>0</tilted></_>
    <_>
      <rects>
        <_>
          13 29 4 12 -1.</_>
        <_>
          15 29 2 12 2.</_></rects>
      <tilted>0</tilted></_>
    <_>
      <rects>
        <_>
          13 30 9 12 -1.</_>
        <_>
          13 34 9 4 2.</_></rects>
      <tilted>0</tilted></_>
    <_>
      <rects>
        <_>
          13 40 8 8 -1.</_>
        <_>
          13 44 8 4 2.</_></rects>
      <tilted>0</tilted></_>
    <_>
      <rects>
        <_>
          13 43 10 2 -1.</_>
        <_>
          13 43 5 1 2.</_>
        <_>
          18 44 5 1 2.</_></rects>
      <tilted>0</tilted></_>
    <_>
      <rects>
        <_>
          13 46 11 2 -1.</_>
        <_>
          13 47 11 1 2.</_></rects>
      <tilted>0</tilted></_>
    <_>
      <rects>
        <_>
          14 1 2 14 -1.</_>
        <_>
          14 1 1 7 2.</_>
        <_>
          15 8 1 7 2.</_></rects>
      <tilted>0</tilted></_>
    <_>
      <rects>
        <_>
          14 7 4 2 -1.</_>
        <_>
          14 7 2 1 2.</_>
        <_>
          16 8 2 1 2.</_></rects>
      <tilted>0</tilted></_>
    <_>
      <rects>
        <_>
          14 7 4 40 -1.</_>
        <_>
          14 7 2 20 2.</_>
        <_>
          16 27 2 20 2.</_></rects>
      <tilted>0</tilted></_>
    <_>
      <rects>
        <_>
          14 8 1 3 -1.</_>
        <_>
          14 9 1 1 2.</_></rects>
      <tilted>0</tilted></_>
    <_>
      <rects>
        <_>
          14 8 2 2 -1.</_>
        <_>
          15 8 1 2 2.</_></rects>
      <tilted>0</tilted></_>
    <_>
      <rects>
        <_>
          14 9 8 10 -1.</_>
        <_>
          14 14 8 5 2.</_></rects>
      <tilted>0</tilted></_>
    <_>
      <rects>
        <_>
          14 19 2 4 -1.</_>
        <_>
          15 19 1 4 2.</_></rects>
      <tilted>0</tilted></_>
    <_>
      <rects>
        <_>
          14 21 6 20 -1.</_>
        <_>
          14 21 3 10 2.</_>
        <_>
          17 31 3 10 2.</_></rects>
      <tilted>0</tilted></_>
    <_>
      <rects>
        <_>
          14 23 2 2 -1.</_>
        <_>
          14 23 1 1 2.</_>
        <_>
          15 24 1 1 2.</_></rects>
      <tilted>0</tilted></_>
    <_>
      <rects>
        <_>
          14 25 1 4 -1.</_>
        <_>
          14 27 1 2 2.</_></rects>
      <tilted>0</tilted></_>
    <_>
      <rects>
        <_>
          14 31 6 13 -1.</_>
        <_>
          17 31 3 13 2.</_></rects>
      <tilted>0</tilted></_>
    <_>
      <rects>
        <_>
          15 0 6 2 -1.</_>
        <_>
          15 0 3 1 2.</_>
        <_>
          18 1 3 1 2.</_></rects>
      <tilted>0</tilted></_>
    <_>
      <rects>
        <_>
          15 1 8 4 -1.</_>
        <_>
          15 1 4 2 2.</_>
        <_>
          19 3 4 2 2.</_></rects>
      <tilted>0</tilted></_>
    <_>
      <rects>
        <_>
          15 2 8 12 -1.</_>
        <_>
          19 2 4 12 2.</_></rects>
      <tilted>0</tilted></_>
    <_>
      <rects>
        <_>
          15 18 6 30 -1.</_>
        <_>
          17 18 2 30 2.</_></rects>
      <tilted>0</tilted></_>
    <_>
      <rects>
        <_>
          15 20 1 4 -1.</_>
        <_>
          15 22 1 2 2.</_></rects>
      <tilted>0</tilted></_>
    <_>
      <rects>
        <_>
          15 24 4 18 -1.</_>
        <_>
          17 24 2 18 2.</_></rects>
      <tilted>0</tilted></_>
    <_>
      <rects>
        <_>
          15 31 4 16 -1.</_>
        <_>
          17 31 2 16 2.</_></rects>
      <tilted>0</tilted></_>
    <_>
      <rects>
        <_>
          16 0 3 2 -1.</_>
        <_>
          16 1 3 1 2.</_></rects>
      <tilted>0</tilted></_>
    <_>
      <rects>
        <_>
          16 0 8 2 -1.</_>
        <_>
          16 0 4 1 2.</_>
        <_>
          20 1 4 1 2.</_></rects>
      <tilted>0</tilted></_>
    <_>
      <rects>
        <_>
          16 4 8 2 -1.</_>
        <_>
          16 4 4 1 2.</_>
        <_>
          20 5 4 1 2.</_></rects>
      <tilted>0</tilted></_>
    <_>
      <rects>
        <_>
          16 4 8 43 -1.</_>
        <_>
          20 4 4 43 2.</_></rects>
      <tilted>0</tilted></_>
    <_>
      <rects>
        <_>
          16 9 2 2 -1.</_>
        <_>
          17 9 1 2 2.</_></rects>
      <tilted>0</tilted></_>
    <_>
      <rects>
        <_>
          16 10 4 32 -1.</_>
        <_>
          18 10 2 32 2.</_></rects>
      <tilted>0</tilted></_>
    <_>
      <rects>
        <_>
          16 17 4 11 -1.</_>
        <_>
          18 17 2 11 2.</_></rects>
      <tilted>0</tilted></_>
    <_>
      <rects>
        <_>
          16 20 6 20 -1.</_>
        <_>
          19 20 3 20 2.</_></rects>
      <tilted>0</tilted></_>
    <_>
      <rects>
        <_>
          16 20 4 2 -1.</_>
        <_>
          16 21 4 1 2.</_></rects>
      <tilted>0</tilted></_>
    <_>
      <rects>
        <_>
          16 29 1 8 -1.</_>
        <_>
          16 33 1 4 2.</_></rects>
      <tilted>0</tilted></_>
    <_>
      <rects>
        <_>
          16 31 6 16 -1.</_>
        <_>
          19 31 3 16 2.</_></rects>
      <tilted>0</tilted></_>
    <_>
      <rects>
        <_>
          16 31 4 4 -1.</_>
        <_>
          16 33 4 2 2.</_></rects>
      <tilted>0</tilted></_>
    <_>
      <rects>
        <_>
          16 35 8 13 -1.</_>
        <_>
          20 35 4 13 2.</_></rects>
      <tilted>0</tilted></_>
    <_>
      <rects>
        <_>
          16 39 4 4 -1.</_>
        <_>
          18 39 2 4 2.</_></rects>
      <tilted>0</tilted></_>
    <_>
      <rects>
        <_>
          17 3 2 1 -1.</_>
        <_>
          18 3 1 1 2.</_></rects>
      <tilted>0</tilted></_>
    <_>
      <rects>
        <_>
          17 3 4 8 -1.</_>
        <_>
          19 3 2 8 2.</_></rects>
      <tilted>0</tilted></_>
    <_>
      <rects>
        <_>
          17 8 2 4 -1.</_>
        <_>
          17 10 2 2 2.</_></rects>
      <tilted>0</tilted></_>
    <_>
      <rects>
        <_>
          17 10 2 38 -1.</_>
        <_>
          18 10 1 38 2.</_></rects>
      <tilted>0</tilted></_>
    <_>
      <rects>
        <_>
          17 10 4 8 -1.</_>
        <_>
          17 10 2 4 2.</_>
        <_>
          19 14 2 4 2.</_></rects>
      <tilted>0</tilted></_>
    <_>
      <rects>
        <_>
          17 11 4 6 -1.</_>
        <_>
          17 11 2 3 2.</_>
        <_>
          19 14 2 3 2.</_></rects>
      <tilted>0</tilted></_>
    <_>
      <rects>
        <_>
          17 14 2 2 -1.</_>
        <_>
          18 14 1 2 2.</_></rects>
      <tilted>0</tilted></_>
    <_>
      <rects>
        <_>
          17 14 4 6 -1.</_>
        <_>
          19 14 2 6 2.</_></rects>
      <tilted>0</tilted></_>
    <_>
      <rects>
        <_>
          17 18 6 26 -1.</_>
        <_>
          20 18 3 26 2.</_></rects>
      <tilted>0</tilted></_>
    <_>
      <rects>
        <_>
          17 27 4 21 -1.</_>
        <_>
          17 34 4 7 2.</_></rects>
      <tilted>0</tilted></_>
    <_>
      <rects>
        <_>
          17 29 4 11 -1.</_>
        <_>
          19 29 2 11 2.</_></rects>
      <tilted>0</tilted></_>
    <_>
      <rects>
        <_>
          17 44 1 4 -1.</_>
        <_>
          17 46 1 2 2.</_></rects>
      <tilted>0</tilted></_>
    <_>
      <rects>
        <_>
          18 0 6 32 -1.</_>
        <_>
          21 0 3 32 2.</_></rects>
      <tilted>0</tilted></_>
    <_>
      <rects>
        <_>
          18 2 4 2 -1.</_>
        <_>
          18 2 2 1 2.</_>
        <_>
          20 3 2 1 2.</_></rects>
      <tilted>0</tilted></_>
    <_>
      <rects>
        <_>
          18 11 6 31 -1.</_>
        <_>
          21 11 3 31 2.</_></rects>
      <tilted>0</tilted></_>
    <_>
      <rects>
        <_>
          18 12 1 6 -1.</_>
        <_>
          18 14 1 2 2.</_></rects>
      <tilted>0</tilted></_>
    <_>
      <rects>
        <_>
          18 32 2 4 -1.</_>
        <_>
          18 34 2 2 2.</_></rects>
      <tilted>0</tilted></_>
    <_>
      <rects>
        <_>
          18 44 6 4 -1.</_>
        <_>
          18 44 3 2 2.</_>
        <_>
          21 46 3 2 2.</_></rects>
      <tilted>0</tilted></_>
    <_>
      <rects>
        <_>
          19 6 2 15 -1.</_>
        <_>
          20 6 1 15 2.</_></rects>
      <tilted>0</tilted></_>
    <_>
      <rects>
        <_>
          19 11 4 36 -1.</_>
        <_>
          21 11 2 36 2.</_></rects>
      <tilted>0</tilted></_>
    <_>
      <rects>
        <_>
          19 18 4 22 -1.</_>
        <_>
          19 18 2 11 2.</_>
        <_>
          21 29 2 11 2.</_></rects>
      <tilted>0</tilted></_>
    <_>
      <rects>
        <_>
          19 43 2 2 -1.</_>
        <_>
          19 44 2 1 2.</_></rects>
      <tilted>0</tilted></_>
    <_>
      <rects>
        <_>
          20 33 1 12 -1.</_>
        <_>
          20 37 1 4 2.</_></rects>
      <tilted>0</tilted></_>
    <_>
      <rects>
        <_>
          20 34 2 2 -1.</_>
        <_>
          21 34 1 2 2.</_></rects>
      <tilted>0</tilted></_>
    <_>
      <rects>
        <_>
          20 46 2 2 -1.</_>
        <_>
          21 46 1 2 2.</_></rects>
      <tilted>0</tilted></_>
    <_>
      <rects>
        <_>
          21 0 2 10 -1.</_>
        <_>
          21 0 1 5 2.</_>
        <_>
          22 5 1 5 2.</_></rects>
      <tilted>0</tilted></_>
    <_>
      <rects>
        <_>
          21 0 3 2 -1.</_>
        <_>
          21 1 3 1 2.</_></rects>
      <tilted>0</tilted></_>
    <_>
      <rects>
        <_>
          21 1 1 2 -1.</_>
        <_>
          21 2 1 1 2.</_></rects>
      <tilted>0</tilted></_>
    <_>
      <rects>
        <_>
          21 5 2 4 -1.</_>
        <_>
          21 5 1 2 2.</_>
        <_>
          22 7 1 2 2.</_></rects>
      <tilted>0</tilted></_>
    <_>
      <rects>
        <_>
          22 1 2 2 -1.</_>
        <_>
          22 1 1 1 2.</_>
        <_>
          23 2 1 1 2.</_></rects>
      <tilted>0</tilted></_>
    <_>
      <rects>
        <_>
          22 21 2 4 -1.</_>
        <_>
          22 21 1 2 2.</_>
        <_>
          23 23 1 2 2.</_></rects>
      <tilted>0</tilted></_>
    <_>
      <rects>
        <_>
          22 36 2 2 -1.</_>
        <_>
          22 36 1 1 2.</_>
        <_>
          23 37 1 1 2.</_></rects>
      <tilted>0</tilted></_>
    <_>
      <rects>
        <_>
          22 41 2 6 -1.</_>
        <_>
          22 41 1 3 2.</_>
        <_>
          23 44 1 3 2.</_></rects>
      <tilted>0</tilted></_>
    <_>
      <rects>
        <_>
          23 0 1 20 -1.</_>
        <_>
          23 10 1 10 2.</_></rects>
      <tilted>0</tilted></_>
    <_>
      <rects>
        <_>
          23 6 1 10 -1.</_>
        <_>
          23 11 1 5 2.</_></rects>
      <tilted>0</tilted></_></features></cascade>
</opencv_storage>
