<?xml version="1.0"?>
<opencv_storage>
<stage6>
  <maxWeakCount>15</maxWeakCount>
  <stageThreshold>-1.1038590669631958e+00</stageThreshold>
  <weakClassifiers>
    <_>
      <internalNodes>
        0 -1 230766 8.6945928633213043e-03</internalNodes>
      <leafValues>
        -6.3333332538604736e-01 1.1666666716337204e-01</leafValues></_>
    <_>
      <internalNodes>
        0 -1 124691 -1.6323771327733994e-02</internalNodes>
      <leafValues>
        3.3919787406921387e-01 -3.9989453554153442e-01</leafValues></_>
    <_>
      <internalNodes>
        0 -1 588179 -1.0060723870992661e-03</internalNodes>
      <leafValues>
        3.7089136242866516e-01 -3.1083720922470093e-01</leafValues></_>
    <_>
      <internalNodes>
        0 -1 90995 7.4195712804794312e-02</internalNodes>
      <leafValues>
        1.5866482257843018e-01 -7.3647326231002808e-01</leafValues></_>
    <_>
      <internalNodes>
        0 -1 573513 3.7786670145578682e-04</internalNodes>
      <leafValues>
        1.8028366565704346e-01 -7.0881766080856323e-01</leafValues></_>
    <_>
      <internalNodes>
        0 -1 584614 2.1833267062902451e-02</internalNodes>
      <leafValues>
        -3.2637074589729309e-01 3.6188960075378418e-01</leafValues></_>
    <_>
      <internalNodes>
        0 -1 426559 -1.2927966890856624e-03</internalNodes>
      <leafValues>
        5.7540178298950195e-01 -2.1843196451663971e-01</leafValues></_>
    <_>
      <internalNodes>
        0 -1 237524 2.1687068510800600e-03</internalNodes>
      <leafValues>
        -5.0304943323135376e-01 2.6152303814888000e-01</leafValues></_>
    <_>
      <internalNodes>
        0 -1 523171 -2.3485163226723671e-02</internalNodes>
      <leafValues>
        6.5969073772430420e-01 -2.2120985388755798e-01</leafValues></_>
    <_>
      <internalNodes>
        0 -1 643977 3.2452945015393198e-04</internalNodes>
      <leafValues>
        2.6017215847969055e-01 -5.3043550252914429e-01</leafValues></_>
    <_>
      <internalNodes>
        0 -1 594659 -1.5832514036446810e-03</internalNodes>
      <leafValues>
        4.0963312983512878e-01 -2.9400619864463806e-01</leafValues></_>
    <_>
      <internalNodes>
        0 -1 641627 1.6319358837790787e-04</internalNodes>
      <leafValues>
        1.6304968297481537e-01 -6.4126545190811157e-01</leafValues></_>
    <_>
      <internalNodes>
        0 -1 268388 -1.4323306968435645e-03</internalNodes>
      <leafValues>
        4.0416407585144043e-01 -2.8036674857139587e-01</leafValues></_>
    <_>
      <internalNodes>
        0 -1 290921 -4.7234310768544674e-03</internalNodes>
      <leafValues>
        4.6761718392372131e-01 -2.4306763708591461e-01</leafValues></_>
    <_>
      <internalNodes>
        0 -1 252141 -1.7105977237224579e-01</internalNodes>
      <leafValues>
        -5.4043352603912354e-01 2.3148971796035767e-01</leafValues></_></weakClassifiers></stage6>
</opencv_storage>
