<?xml version="1.0"?>
<opencv_storage>
<stage8>
  <maxWeakCount>15</maxWeakCount>
  <stageThreshold>-8.8679474592208862e-01</stageThreshold>
  <weakClassifiers>
    <_>
      <internalNodes>
        0 -1 528038 -8.5126180201768875e-03</internalNodes>
      <leafValues>
        1.4285714924335480e-01 -5.6435644626617432e-01</leafValues></_>
    <_>
      <internalNodes>
        0 -1 327096 -6.0000173747539520e-02</internalNodes>
      <leafValues>
        1.7338626086711884e-01 -5.0885540246963501e-01</leafValues></_>
    <_>
      <internalNodes>
        0 -1 40393 -1.6170524060726166e-02</internalNodes>
      <leafValues>
        2.6927721500396729e-01 -3.6712658405303955e-01</leafValues></_>
    <_>
      <internalNodes>
        0 -1 284095 -3.4823976457118988e-03</internalNodes>
      <leafValues>
        6.7081916332244873e-01 -1.5660756826400757e-01</leafValues></_>
    <_>
      <internalNodes>
        0 -1 356498 -7.4157025665044785e-04</internalNodes>
      <leafValues>
        6.7686694860458374e-01 -1.5258729457855225e-01</leafValues></_>
    <_>
      <internalNodes>
        0 -1 334809 2.3117940872907639e-04</internalNodes>
      <leafValues>
        -2.4850554764270782e-01 3.9993789792060852e-01</leafValues></_>
    <_>
      <internalNodes>
        0 -1 351219 1.2700454099103808e-03</internalNodes>
      <leafValues>
        -2.4816706776618958e-01 4.1421967744827271e-01</leafValues></_>
    <_>
      <internalNodes>
        0 -1 584624 -1.7366575775668025e-04</internalNodes>
      <leafValues>
        3.2794252038002014e-01 -3.0603149533271790e-01</leafValues></_>
    <_>
      <internalNodes>
        0 -1 595611 -3.5493676550686359e-03</internalNodes>
      <leafValues>
        5.0352865457534790e-01 -2.0575793087482452e-01</leafValues></_>
    <_>
      <internalNodes>
        0 -1 80067 -1.1014894396066666e-01</internalNodes>
      <leafValues>
        -7.4357491731643677e-01 1.6172753274440765e-01</leafValues></_>
    <_>
      <internalNodes>
        0 -1 275820 -1.5356676653027534e-02</internalNodes>
      <leafValues>
        5.9020334482192993e-01 -1.9160723686218262e-01</leafValues></_>
    <_>
      <internalNodes>
        0 -1 317072 2.0852118730545044e-02</internalNodes>
      <leafValues>
        -2.1327999234199524e-01 5.2240008115768433e-01</leafValues></_>
    <_>
      <internalNodes>
        0 -1 499620 -1.3955042231827974e-03</internalNodes>
      <leafValues>
        5.5191904306411743e-01 -1.8899174034595490e-01</leafValues></_>
    <_>
      <internalNodes>
        0 -1 55342 1.0208027670159936e-03</internalNodes>
      <leafValues>
        1.5240894258022308e-01 -8.5498583316802979e-01</leafValues></_>
    <_>
      <internalNodes>
        0 -1 6602 -1.1505531147122383e-03</internalNodes>
      <leafValues>
        -7.4314820766448975e-01 1.2508405745029449e-01</leafValues></_></weakClassifiers></stage8>
</opencv_storage>
