<?xml version="1.0"?>
<opencv_storage>
<stage10>
  <maxWeakCount>13</maxWeakCount>
  <stageThreshold>-1.3573611974716187e+00</stageThreshold>
  <weakClassifiers>
    <_>
      <internalNodes>
        0 -1 121910 -8.0192778259515762e-03</internalNodes>
      <leafValues>
        4.6153846383094788e-01 -8.0054396390914917e-01</leafValues></_>
    <_>
      <internalNodes>
        0 -1 146673 -4.8130871728062630e-03</internalNodes>
      <leafValues>
        2.5703135132789612e-01 -4.6983951330184937e-01</leafValues></_>
    <_>
      <internalNodes>
        0 -1 40910 -9.5841614529490471e-03</internalNodes>
      <leafValues>
        2.5647586584091187e-01 -3.6744102835655212e-01</leafValues></_>
    <_>
      <internalNodes>
        0 -1 47922 2.5667164474725723e-02</internalNodes>
      <leafValues>
        -1.6594822704792023e-01 7.2364848852157593e-01</leafValues></_>
    <_>
      <internalNodes>
        0 -1 25788 1.7551919445395470e-03</internalNodes>
      <leafValues>
        1.3977852463722229e-01 -9.5574718713760376e-01</leafValues></_>
    <_>
      <internalNodes>
        0 -1 34595 -1.1209386866539717e-03</internalNodes>
      <leafValues>
        3.3530038595199585e-01 -3.1724432110786438e-01</leafValues></_>
    <_>
      <internalNodes>
        0 -1 81488 -8.9598186314105988e-03</internalNodes>
      <leafValues>
        3.6603286862373352e-01 -3.1944328546524048e-01</leafValues></_>
    <_>
      <internalNodes>
        0 -1 959 -7.9872173070907593e-01</internalNodes>
      <leafValues>
        3.0443373322486877e-01 -4.4417399168014526e-01</leafValues></_>
    <_>
      <internalNodes>
        0 -1 384 -8.2426548004150391e-02</internalNodes>
      <leafValues>
        3.7086585164070129e-01 -3.6238595843315125e-01</leafValues></_>
    <_>
      <internalNodes>
        0 -1 148300 -3.5319005837664008e-04</internalNodes>
      <leafValues>
        -6.7723053693771362e-01 1.7653870582580566e-01</leafValues></_>
    <_>
      <internalNodes>
        0 -1 158015 5.4998463019728661e-04</internalNodes>
      <leafValues>
        1.7820172011852264e-01 -6.3000917434692383e-01</leafValues></_>
    <_>
      <internalNodes>
        0 -1 162094 -1.8614946748130023e-04</internalNodes>
      <leafValues>
        -6.7263489961624146e-01 1.3992083072662354e-01</leafValues></_>
    <_>
      <internalNodes>
        0 -1 128995 -2.0257681608200073e-03</internalNodes>
      <leafValues>
        3.5997775197029114e-01 -3.0164504051208496e-01</leafValues></_></weakClassifiers></stage10>
</opencv_storage>
