<?xml version="1.0"?>
<opencv_storage>
<stage4>
  <maxWeakCount>13</maxWeakCount>
  <stageThreshold>-8.4879225492477417e-01</stageThreshold>
  <weakClassifiers>
    <_>
      <internalNodes>
        0 -1 195019 -1.0701061226427555e-02</internalNodes>
      <leafValues>
        -4.9498999118804932e-01 4.6534654498100281e-01</leafValues></_>
    <_>
      <internalNodes>
        0 -1 281219 6.1755883507430553e-03</internalNodes>
      <leafValues>
        -3.3748030662536621e-01 4.2769867181777954e-01</leafValues></_>
    <_>
      <internalNodes>
        0 -1 56662 -3.9540044963359833e-02</internalNodes>
      <leafValues>
        3.0265155434608459e-01 -4.4765529036521912e-01</leafValues></_>
    <_>
      <internalNodes>
        0 -1 497774 -1.6782281454652548e-03</internalNodes>
      <leafValues>
        3.8816434144973755e-01 -2.9462504386901855e-01</leafValues></_>
    <_>
      <internalNodes>
        0 -1 431269 -7.6547218486666679e-03</internalNodes>
      <leafValues>
        5.9061807394027710e-01 -2.1548107266426086e-01</leafValues></_>
    <_>
      <internalNodes>
        0 -1 129968 -3.7588946521282196e-02</internalNodes>
      <leafValues>
        4.2153403162956238e-01 -3.0784389376640320e-01</leafValues></_>
    <_>
      <internalNodes>
        0 -1 465704 -6.5763702150434256e-04</internalNodes>
      <leafValues>
        4.0245962142944336e-01 -3.1248497962951660e-01</leafValues></_>
    <_>
      <internalNodes>
        0 -1 460872 9.0059952344745398e-04</internalNodes>
      <leafValues>
        -1.6742171347141266e-01 7.0317912101745605e-01</leafValues></_>
    <_>
      <internalNodes>
        0 -1 499097 -7.6836477965116501e-03</internalNodes>
      <leafValues>
        -4.7429433465003967e-01 3.1462246179580688e-01</leafValues></_>
    <_>
      <internalNodes>
        0 -1 215566 -5.8000154793262482e-02</internalNodes>
      <leafValues>
        -6.7424511909484863e-01 1.6270056366920471e-01</leafValues></_>
    <_>
      <internalNodes>
        0 -1 257279 4.3093590065836906e-03</internalNodes>
      <leafValues>
        -2.1767760813236237e-01 5.4801017045974731e-01</leafValues></_>
    <_>
      <internalNodes>
        0 -1 54109 -6.7548938095569611e-03</internalNodes>
      <leafValues>
        3.7307530641555786e-01 -3.1408494710922241e-01</leafValues></_>
    <_>
      <internalNodes>
        0 -1 568538 -5.2024321630597115e-03</internalNodes>
      <leafValues>
        5.1533466577529907e-01 -2.2905915975570679e-01</leafValues></_></weakClassifiers></stage4>
</opencv_storage>
