<?xml version="1.0"?>
<opencv_storage>
<stage11>
  <maxWeakCount>17</maxWeakCount>
  <stageThreshold>-8.3713978528976440e-01</stageThreshold>
  <weakClassifiers>
    <_>
      <internalNodes>
        0 -1 500103 -6.5234482288360596e-02</internalNodes>
      <leafValues>
        8.7500000000000000e-01 -4.0140846371650696e-01</leafValues></_>
    <_>
      <internalNodes>
        0 -1 149021 7.7012326801195741e-04</internalNodes>
      <leafValues>
        7.5067564845085144e-02 -8.9744347333908081e-01</leafValues></_>
    <_>
      <internalNodes>
        0 -1 131186 -3.1824423931539059e-03</internalNodes>
      <leafValues>
        3.3199208974838257e-01 -2.5704294443130493e-01</leafValues></_>
    <_>
      <internalNodes>
        0 -1 645060 1.9484836957417428e-04</internalNodes>
      <leafValues>
        1.3378679752349854e-01 -4.9571892619132996e-01</leafValues></_>
    <_>
      <internalNodes>
        0 -1 475539 1.6667053569108248e-04</internalNodes>
      <leafValues>
        -3.2270351052284241e-01 2.6439127326011658e-01</leafValues></_>
    <_>
      <internalNodes>
        0 -1 546123 -1.1651064269244671e-03</internalNodes>
      <leafValues>
        -8.7720233201980591e-01 1.1945128440856934e-01</leafValues></_>
    <_>
      <internalNodes>
        0 -1 411657 -9.2587992548942566e-03</internalNodes>
      <leafValues>
        9.5868863165378571e-02 -7.5353997945785522e-01</leafValues></_>
    <_>
      <internalNodes>
        0 -1 605681 4.5015418436378241e-04</internalNodes>
      <leafValues>
        1.0424129664897919e-01 -6.9707876443862915e-01</leafValues></_>
    <_>
      <internalNodes>
        0 -1 463710 1.4863035175949335e-04</internalNodes>
      <leafValues>
        -3.2335448265075684e-01 2.3003828525543213e-01</leafValues></_>
    <_>
      <internalNodes>
        0 -1 213161 9.6087146084755659e-04</internalNodes>
      <leafValues>
        -2.1319329738616943e-01 3.8646295666694641e-01</leafValues></_>
    <_>
      <internalNodes>
        0 -1 372900 -6.3262518960982561e-04</internalNodes>
      <leafValues>
        2.9870864748954773e-01 -2.9124528169631958e-01</leafValues></_>
    <_>
      <internalNodes>
        0 -1 325277 -3.4800982102751732e-03</internalNodes>
      <leafValues>
        5.7224553823471069e-01 -1.7368805408477783e-01</leafValues></_>
    <_>
      <internalNodes>
        0 -1 456742 -1.2848633341491222e-03</internalNodes>
      <leafValues>
        -5.7485389709472656e-01 1.7731289565563202e-01</leafValues></_>
    <_>
      <internalNodes>
        0 -1 399815 1.4336786698549986e-03</internalNodes>
      <leafValues>
        1.0868807137012482e-01 -7.2245770692825317e-01</leafValues></_>
    <_>
      <internalNodes>
        0 -1 440283 4.4956084457226098e-04</internalNodes>
      <leafValues>
        -1.9373615086078644e-01 5.3975623846054077e-01</leafValues></_>
    <_>
      <internalNodes>
        0 -1 277451 8.4078181535005569e-03</internalNodes>
      <leafValues>
        -9.2057369649410248e-02 8.0476051568984985e-01</leafValues></_>
    <_>
      <internalNodes>
        0 -1 277963 -3.2987603917717934e-03</internalNodes>
      <leafValues>
        3.9621382951736450e-01 -2.5738498568534851e-01</leafValues></_></weakClassifiers></stage11>
</opencv_storage>
