<?xml version="1.0"?>
<opencv_storage>
<stage3>
  <maxWeakCount>7</maxWeakCount>
  <stageThreshold>-1.8900849819183350e+00</stageThreshold>
  <weakClassifiers>
    <_>
      <internalNodes>
        0 -1 151707 1.5153173357248306e-02</internalNodes>
      <leafValues>
        -9.0849673748016357e-01 -1.7535544931888580e-01</leafValues></_>
    <_>
      <internalNodes>
        0 -1 4308 -3.5083491355180740e-02</internalNodes>
      <leafValues>
        3.3439829945564270e-01 -6.3519787788391113e-01</leafValues></_>
    <_>
      <internalNodes>
        0 -1 138664 -6.5937670879065990e-03</internalNodes>
      <leafValues>
        5.7036894559860229e-01 -4.0667474269866943e-01</leafValues></_>
    <_>
      <internalNodes>
        0 -1 146755 1.2323235161602497e-02</internalNodes>
      <leafValues>
        -5.3695189952850342e-01 3.9175283908843994e-01</leafValues></_>
    <_>
      <internalNodes>
        0 -1 98638 1.5262918546795845e-02</internalNodes>
      <leafValues>
        -3.1059622764587402e-01 7.4243438243865967e-01</leafValues></_>
    <_>
      <internalNodes>
        0 -1 131748 4.8456992954015732e-03</internalNodes>
      <leafValues>
        -6.5838730335235596e-01 3.3439409732818604e-01</leafValues></_>
    <_>
      <internalNodes>
        0 -1 88239 -5.4050842300057411e-04</internalNodes>
      <leafValues>
        4.6014431118965149e-01 -4.0360525250434875e-01</leafValues></_></weakClassifiers></stage3>
</opencv_storage>
