<?xml version="1.0"?>
<opencv_storage>
<stage0>
  <maxWeakCount>5</maxWeakCount>
  <stageThreshold>-9.9802148342132568e-01</stageThreshold>
  <weakClassifiers>
    <_>
      <internalNodes>
        0 -1 610157 2.5152411311864853e-02</internalNodes>
      <leafValues>
        -7.5632184743881226e-01 7.8181821107864380e-01</leafValues></_>
    <_>
      <internalNodes>
        0 -1 327 -1.0257375426590443e-02</internalNodes>
      <leafValues>
        4.5922961831092834e-01 -8.6858409643173218e-01</leafValues></_>
    <_>
      <internalNodes>
        0 -1 28581 -3.3435910940170288e-02</internalNodes>
      <leafValues>
        5.9733337163925171e-01 -6.0920435190200806e-01</leafValues></_>
    <_>
      <internalNodes>
        0 -1 282413 -4.6598203480243683e-02</internalNodes>
      <leafValues>
        5.1034069061279297e-01 -6.3800060749053955e-01</leafValues></_>
    <_>
      <internalNodes>
        0 -1 28097 -2.5727400556206703e-02</internalNodes>
      <leafValues>
        5.4627573490142822e-01 -5.5739706754684448e-01</leafValues></_></weakClassifiers></stage0>
</opencv_storage>
