<?xml version="1.0"?>
<opencv_storage>
<stage2>
  <maxWeakCount>7</maxWeakCount>
  <stageThreshold>-1.9975824356079102e+00</stageThreshold>
  <weakClassifiers>
    <_>
      <internalNodes>
        0 -1 150023 3.0011055991053581e-02</internalNodes>
      <leafValues>
        -9.3127959966659546e-01 -2.9824560880661011e-01</leafValues></_>
    <_>
      <internalNodes>
        0 -1 1386 -3.4537315368652344e-02</internalNodes>
      <leafValues>
        2.3002438247203827e-01 -7.3641180992126465e-01</leafValues></_>
    <_>
      <internalNodes>
        0 -1 121809 -2.9661262035369873e-01</internalNodes>
      <leafValues>
        3.6765447258949280e-01 -7.3897856473922729e-01</leafValues></_>
    <_>
      <internalNodes>
        0 -1 81488 -7.2104809805750847e-03</internalNodes>
      <leafValues>
        6.3352644443511963e-01 -4.9397730827331543e-01</leafValues></_>
    <_>
      <internalNodes>
        0 -1 65674 -1.2259285897016525e-02</internalNodes>
      <leafValues>
        7.5488930940628052e-01 -3.1281679868698120e-01</leafValues></_>
    <_>
      <internalNodes>
        0 -1 70165 1.6253581270575523e-02</internalNodes>
      <leafValues>
        -4.2750963568687439e-01 6.1793422698974609e-01</leafValues></_>
    <_>
      <internalNodes>
        0 -1 141531 2.0753916352987289e-02</internalNodes>
      <leafValues>
        -4.5054864883422852e-01 5.5450403690338135e-01</leafValues></_></weakClassifiers></stage2>
</opencv_storage>
