<?xml version="1.0"?>
<opencv_storage>
<stage7>
  <maxWeakCount>11</maxWeakCount>
  <stageThreshold>-1.5003011226654053e+00</stageThreshold>
  <weakClassifiers>
    <_>
      <internalNodes>
        0 -1 104221 1.1894562840461731e-01</internalNodes>
      <leafValues>
        -7.9621279239654541e-01 6.0000002384185791e-01</leafValues></_>
    <_>
      <internalNodes>
        0 -1 5066 -1.0912920348346233e-02</internalNodes>
      <leafValues>
        2.7382820844650269e-01 -4.9775290489196777e-01</leafValues></_>
    <_>
      <internalNodes>
        0 -1 26812 3.9986049523577094e-04</internalNodes>
      <leafValues>
        1.3985741138458252e-01 -7.1710860729217529e-01</leafValues></_>
    <_>
      <internalNodes>
        0 -1 148291 4.3581137433648109e-03</internalNodes>
      <leafValues>
        -3.5101935267448425e-01 3.4966436028480530e-01</leafValues></_>
    <_>
      <internalNodes>
        0 -1 24418 5.9098273050040007e-04</internalNodes>
      <leafValues>
        2.6214984059333801e-01 -5.7699507474899292e-01</leafValues></_>
    <_>
      <internalNodes>
        0 -1 155214 1.1822085361927748e-03</internalNodes>
      <leafValues>
        -3.3995091915130615e-01 3.5014519095420837e-01</leafValues></_>
    <_>
      <internalNodes>
        0 -1 93593 -5.2811871282756329e-03</internalNodes>
      <leafValues>
        -5.7214647531509399e-01 2.2020040452480316e-01</leafValues></_>
    <_>
      <internalNodes>
        0 -1 13183 7.3952897218987346e-04</internalNodes>
      <leafValues>
        1.3949160277843475e-01 -7.7008169889450073e-01</leafValues></_>
    <_>
      <internalNodes>
        0 -1 161182 2.3768621031194925e-04</internalNodes>
      <leafValues>
        2.3718641698360443e-01 -5.4143381118774414e-01</leafValues></_>
    <_>
      <internalNodes>
        0 -1 157604 5.7496153749525547e-04</internalNodes>
      <leafValues>
        1.2748795747756958e-01 -8.9724689722061157e-01</leafValues></_>
    <_>
      <internalNodes>
        0 -1 58333 1.5647474210709333e-03</internalNodes>
      <leafValues>
        -4.0102678537368774e-01 2.9050323367118835e-01</leafValues></_></weakClassifiers></stage7>
</opencv_storage>
