<?xml version="1.0"?>
<opencv_storage>
<stage6>
  <maxWeakCount>11</maxWeakCount>
  <stageThreshold>-1.6504944562911987e+00</stageThreshold>
  <weakClassifiers>
    <_>
      <internalNodes>
        0 -1 50544 2.9300313442945480e-02</internalNodes>
      <leafValues>
        -8.1031304597854614e-01 2.0930232107639313e-01</leafValues></_>
    <_>
      <internalNodes>
        0 -1 137661 6.1248423298820853e-04</internalNodes>
      <leafValues>
        -6.0111719369888306e-01 9.7682528197765350e-02</leafValues></_>
    <_>
      <internalNodes>
        0 -1 48846 1.4188991859555244e-02</internalNodes>
      <leafValues>
        -4.4096037745475769e-01 3.0915695428848267e-01</leafValues></_>
    <_>
      <internalNodes>
        0 -1 90853 -4.6423655003309250e-03</internalNodes>
      <leafValues>
        4.6502992510795593e-01 -2.8962793946266174e-01</leafValues></_>
    <_>
      <internalNodes>
        0 -1 55761 -1.8013488501310349e-02</internalNodes>
      <leafValues>
        6.1322158575057983e-01 -1.9769962131977081e-01</leafValues></_>
    <_>
      <internalNodes>
        0 -1 38061 4.9606419634073973e-04</internalNodes>
      <leafValues>
        2.0728038251399994e-01 -6.7458266019821167e-01</leafValues></_>
    <_>
      <internalNodes>
        0 -1 146091 7.3028475046157837e-02</internalNodes>
      <leafValues>
        -2.3497208952903748e-01 5.0544816255569458e-01</leafValues></_>
    <_>
      <internalNodes>
        0 -1 21285 1.2904278934001923e-02</internalNodes>
      <leafValues>
        -2.6197597384452820e-01 5.5466860532760620e-01</leafValues></_>
    <_>
      <internalNodes>
        0 -1 161882 1.7661673482507467e-03</internalNodes>
      <leafValues>
        1.7553076148033142e-01 -9.3488508462905884e-01</leafValues></_>
    <_>
      <internalNodes>
        0 -1 104747 -7.7111973951105028e-05</internalNodes>
      <leafValues>
        2.3530885577201843e-01 -4.0644654631614685e-01</leafValues></_>
    <_>
      <internalNodes>
        0 -1 55896 -3.1518680043518543e-03</internalNodes>
      <leafValues>
        4.5968994498252869e-01 -2.5781008601188660e-01</leafValues></_></weakClassifiers></stage6>
</opencv_storage>
